tree
version=v2
num_class=1
num_tree_per_iteration=1
label_index=0
max_feature_idx=9
objective=binary sigmoid:1
feature_names=Column_0 Column_1 Column_2 Column_3 Column_4 Column_5 Column_6 Column_7 Column_8 Column_9
feature_infos=[-0.4762611985206604:0.86669349670410156] [-0.4941316545009613:0.86816036701202393] [-0.4825865626335144:0.91185557842254639] [-0.5308380126953125:0.88616049289703369] [-0.45136812329292297:0.86486935615539551] [-0.59029495716094971:0.89559370279312134] [-0.47882544994354248:0.87106263637542725] [-0.4843655526638031:0.88290786743164062] [-0.45047914981842041:0.87158119678497314] [-0.43635493516921997:0.87981468439102173]
tree_sizes=4685 4796 4491 4798 4832 4729 4675 4609 4608 4690 4060 4315 4534 4311 3987 4289 3597 4081 3915 3920

Tree=0
num_leaves=60
num_cat=0
split_feature=4 5 5 3 0 8 8 2 5 9 3 9 6 9 9 7 6 8 7 4 7 8 3 6 2 8 6 9 8 2 9 4 3 3 2 2 3 3 2 8 4 0 6 3 5 4 8 3 5 5 9 4 6 9 7 5 6 0 2
split_gain=3286.27 477.227 375.113 120.42 95.6076 90.0583 72.9383 48.7739 41.3886 31.0993 30.457 26.9293 24.9062 24.3849 21.8862 21.4072 21.1152 20.9594 20.1682 18.4487 17.6767 16.3591 14.3743 16.444 14.328 12.9129 12.7669 12.3299 11.8392 11.5736 11.5049 10.3046 10.1688 9.99752 9.71361 9.6229 9.49783 9.37377 9.3317 8.50885 8.48002 7.79552 7.52511 7.4422 6.8085 6.73983 7.85191 6.66667 6.45333 6.29665 6.14766 5.77038 5.04595 4.97113 4.23673 3.61234 3.17753 3.46048 1.46997
threshold=0.4238386750221253 0.3239963054656983 0.51910164952278148 0.1862098574638367 0.34354223310947424 0.45091080665588384 0.52630931138992321 0.28482362627983099 0.41080319881439215 0.39716951549053198 0.60816669464111339 0.27798266708850866 0.42337636649608618 0.3009393066167832 0.26263591647148138 0.14554822444915774 0.44662563502788549 0.44617509841918951 0.58679679036140453 0.28247489035129553 0.40926405787467962 0.39385008811950689 0.60816669464111339 0.6016809642314912 0.37447007000446325 0.36559872329235082 0.50123941898345958 0.25504188239574438 0.59559693932533275 0.45005071163177496 0.60211962461471569 0.42982298135757452 0.57631653547286998 0.38869939744472509 0.34683369100093847 0.45005071163177496 0.33899940550327307 0.0441077258437872 0.55974406003952037 0.29738627374172216 0.35078634321689611 0.42481602728366857 0.49114036560058599 0.3911805003881455 0.60607862472534191 0.57634219527244579 0.4295309334993363 0.43442526459693914 0.57568585872650158 0.49190530180931097 0.33297131955623632 0.55486682057380687 0.5126178264617921 -0.13900439441204068 0.51510262489318859 0.56651568412780773 0.071018178015947356 0.36700034141540533 0.28889036178588873
decision_type=2 2 2 2 2 2 2 2 2 2 2 2 2 2 2 2 2 2 2 2 2 2 2 2 2 2 2 2 2 2 2 2 2 2 2 2 2 2 2 2 2 2 2 2 2 2 2 2 2 2 2 2 2 2 2 2 2 2 2
left_child=1 3 5 15 14 9 18 19 20 16 24 33 28 40 17 56 31 49 25 39 42 -13 23 -11 -8 48 34 53 29 -7 -27 -2 50 -10 -16 -22 -15 -29 -26 -5 -9 -18 -6 -21 54 46 -20 -28 -4 -3 -14 -34 -46 -17 -12 -47 58 -58 -1
right_child=2 4 6 7 8 12 10 13 11 22 44 21 32 36 26 27 41 -19 45 43 35 -23 -24 -25 38 30 47 37 -30 -31 -32 -33 51 -35 -36 -37 -38 -39 -40 -41 -42 -43 -44 -45 52 55 -48 -49 -50 -51 -52 -53 -54 -55 -56 -57 57 -59 -60
leaf_value=-0.19766491535318156 -0.0080000000000000002 -0.1507042253521127 -0.10399999999999998 -0.16875420875420877 -0.11246819338422392 -0.044897959183673473 -0.071999999999999995 -0.14134165366614665 -0.07027027027027026 -0.020454545454545458 0.020689655172413793 -0.042285714285714288 -0.040000000000000008 -0.10497237569060774 -0.1124087591240876 -0.093333333333333338 0.026086956521739132 0.0051282051282051282 0.11999999999999995 -0.11339449541284403 -0.013333333333333334 0.011161387631975869 -0.16800000000000001 0.12 0.059829059829059832 0.037694013303769404 -0.06666666666666668 -0.20000000000000001 -0.16363636363636366 0.027848101265822784 -0.052307692307692312 -0.10312500000000001 0.10943396226415095 -0.20000000000000001 -0.071356783919597988 -0.097435897435897437 -0.060442260442260448 -0.12626728110599081 0.097253634894991933 -0.13478260869565217 -0.087323943661971826 -0.069090909090909092 -0.0068965517241379309 -0.17064220183486239 0.050000000000000003 0.16756756756756752 0.010526315789473684 0.066666666666666666 0.013333333333333334 -0.05185185185185185 0.032290362953692114 0.047482014388489209 0.13052631578947368 -0.17558945908460474 0.10169491525423729 0.093333333333333338 -0.18534351145038169 -0.11428571428571428 -0.15789473684210528
leaf_count=1708 38 533 44 1427 350 158 21 594 62 546 21 281 40 319 488 26 66 29 24 486 138 488 24 21 316 317 25 82 21 113 53 450 65 35 334 68 336 394 389 338 122 46 22 105 22 20 56 20 22 22 567 96 669 1398 147 57 1286 25 36
internal_value=0 -1.36333 0.403412 -1.60245 -0.728646 -0.118926 0.857143 -1.34565 -0.410655 -0.468432 1.0255 -0.174688 0.231293 -1.06701 -1.07805 -1.80776 -0.770099 -1.36909 0.34565 -1.51815 -0.8 -0.0730503 -0.188482 -0.138024 0.776978 0.147651 -0.894632 -1.64588 -0.212766 -0.124294 0.263566 -0.946619 0.383912 -1.11927 -0.951374 -0.387597 -0.814044 -1.37984 0.811408 -1.62008 -1.31545 -0.0952381 -1.05213 -1.22936 1.21781 0.831276 0.482759 -0 -0.6 -1.46218 0.28033 0.742857 1.28328 -1.73913 0.928302 1.14961 -1.91195 -1.83857 -1.96802
internal_count=16006 11577 4429 8682 2895 2251 2178 3727 1444 1191 1585 866 1060 1371 1451 4955 600 584 593 2356 578 769 591 567 726 436 867 1900 292 271 370 488 768 97 822 206 655 476 705 1765 716 112 372 591 859 157 80 45 66 555 607 161 691 1424 168 77 3055 1311 1744
shrinkage=0.1


Tree=1
num_leaves=61
num_cat=0
split_feature=8 9 5 1 5 1 2 9 0 1 2 0 7 2 8 6 7 5 8 6 6 6 5 8 9 1 7 0 3 5 1 3 2 7 0 2 1 7 5 6 8 9 7 3 0 6 7 6 9 6 7 6 6 7 3 8 2 2 7 2
split_gain=2606.96 382.81 378.258 123.668 72.8098 70.2337 61.9623 48.2485 38.4717 33.5014 31.5517 25.4586 24.3862 23.2629 22.9032 22.859 20.8649 15.7291 15.6649 14.811 13.8105 13.7141 15.4966 14.0109 13.5476 13.4749 12.4704 13.8438 11.7365 11.5856 11.5301 11.1462 11.0275 10.5135 10.2671 10.0139 9.89054 9.67218 9.31279 9.20826 8.75171 8.5112 7.378 7.36232 6.96739 6.78188 6.25195 5.61419 5.49415 5.8705 5.4723 5.32454 5.28122 4.62377 2.78212 7.20906 1.92576 1.77124 1.77047 1.40745
threshold=0.4185709953308106 0.27589885890483862 0.50162574648857128 0.35170163214206701 0.21573458611965182 0.4899356365203858 0.42578732967376715 0.49080711603164678 0.24582093209028247 0.46082583069801336 0.58479419350624096 0.37523235380649572 0.43082058429718023 0.45877516269683843 0.4537313729524613 0.13238845020532611 0.40375402569770819 0.29009467363357549 0.58989685773849498 0.56830841302871715 0.10518689081072809 0.43132711946964269 0.3239963054656983 0.5189020335674287 0.49752572178840643 0.23925435543060306 0.5692049264907838 0.47370275855064398 0.51399192214012157 0.24935105443000796 0.44633477926254278 0.051426338031888015 0.36632244288921362 0.6409558653831483 0.5340523123741151 0.2826401293277741 0.64015972614288341 0.37081158161163336 0.54522624611854564 0.50501686334609996 0.4848123192787171 0.44293802976608282 0.38373404741287237 0.48542425036430364 0.19412679970264438 0.47865071892738348 0.39884823560714727 0.6497868299484254 0.15206936001777652 0.074385166168212905 0.5519690513610841 0.33712619543075567 0.54836574196815502 0.15560601651668551 0.29044830799102789 0.22162088006734851 0.53567662835121166 0.24412649869918826 0.064708989113569274 0.22493285685777667
decision_type=2 2 2 2 2 2 2 2 2 2 2 2 2 2 2 2 2 2 2 2 2 2 2 2 2 2 2 2 2 2 2 2 2 2 2 2 2 2 2 2 2 2 2 2 2 2 2 2 2 2 2 2 2 2 2 2 2 2 2 2
left_child=1 4 6 8 20 11 9 12 29 21 16 30 32 25 19 48 43 -11 50 46 54 22 -2 -23 -15 -10 27 -9 45 37 42 58 -5 52 -14 -19 -18 -3 -20 -33 -30 -31 -4 -7 53 -16 -8 -35 57 -50 -13 -46 -12 -22 59 -56 -28 -6 -17 -1
right_child=2 3 5 7 15 10 14 26 13 17 33 18 34 24 28 31 36 35 38 -21 44 23 -24 -25 -26 -27 56 -29 40 41 -32 39 -34 47 -36 -37 -38 -39 -40 -41 -42 -43 -44 -45 51 -47 -48 -49 49 -51 -52 -53 -54 -55 55 -57 -58 -59 -60 -61
leaf_value=-0.17713365420408342 -0.12281814300572987 -0.16243531127337829 -0.040045532741549261 -0.093957530356414992 -0.18412986359614253 -0.137031952094221 -0.026025463168959415 0.030435222153468527 -0.11725457857313713 -0.12744086129453289 0.11566347675207281 0.0025267051167427281 -0.01187269136979064 0.0091213490827750428 -0.016557263799755712 -0.11903036978167841 0.059319058911658833 -0.069517907781177959 0.14947117119206335 0.083951734290812041 -0.1721615698021477 -0.014764572853183651 -0.061895365681489845 -0.11090237284482746 -0.15995745455207247 -0.078014997731191596 0.12566058044675454 -0.05074558251602828 -0.027870525027977457 -0.12065469275407659 0.029024893378885554 -0.1113836274814142 -0.050569899704237448 0.096125331214945334 -0.10570160836498457 0.027016449244877245 0.10334287887625156 -0.075642119572269295 0.051647282583836468 -0.007655522739341252 0.054145168506548894 -0.027826844245572191 -0.1793140375211166 0.0099612955883756626 -0.14746801489052735 0.023350155243318065 -0.091101786484422687 0.12869455641427924 -0.17079539344957365 -0.10866425007225111 0.045844952791318901 -0.10897864598861079 0.077065083396908651 -0.14947380847292252 -0.175659783311302 -0.064643765847279461 0.058179245092616766 -0.14606924014553782 -0.17785449125200797 -0.1611308106575973
leaf_count=2387 277 527 20 488 255 23 82 184 553 33 115 261 353 103 286 23 608 43 34 20 828 187 314 72 21 713 23 102 47 363 20 1677 334 188 46 198 161 49 73 27 267 35 38 22 772 227 119 402 110 122 120 159 346 608 81 28 20 58 117 237
internal_value=0 -1.23913 0.325229 -0.778538 -1.50913 0.7399 -0.234736 -0.392554 -1.06018 -0.539103 0.881138 0.208586 -0.568142 -0.865237 0.0589913 -1.2345 0.635659 -0.0184262 0.339527 -0.462805 -1.64575 -0.728135 -0.890003 -0.388853 -0.141361 -0.945845 0.180024 0.0386987 0.183438 -1.36024 -0.780627 -1.13542 -0.755854 1.05497 -0.214422 0.11971 0.692184 -1.54177 0.869736 -1.09457 0.433013 -1.11384 -1.24925 -0.568563 -1.53648 0.0183106 -0.630248 1.18806 -1.59237 -1.36825 0.169312 -1.40591 0.872467 -1.62379 -1.74327 -1.43783 0.963469 -1.76774 -1.67579 -1.75657
internal_count=16006 11403 4603 3914 7489 2431 2172 1550 2364 1124 1865 566 1221 1390 1048 2389 814 274 488 221 5100 850 591 259 124 1266 329 286 827 974 78 1844 822 1051 399 241 769 576 107 1704 314 398 58 45 2367 513 201 590 545 232 381 931 461 1436 2733 109 43 313 140 2624
shrinkage=0.1


Tree=2
num_leaves=57
num_cat=0
split_feature=4 5 6 0 0 8 3 7 2 9 9 6 9 4 5 5 5 6 8 6 6 4 7 9 7 3 2 2 8 6 7 6 2 3 9 4 5 3 2 7 5 7 9 7 6 7 3 9 0 5 3 8 6 9 6 2
split_gain=2237.99 306.88 282.2 71.5854 68.5105 63.6489 55.6485 26.9362 26.4369 25.2971 24.5278 22.5341 21.1527 19.9554 18.7016 18.6596 17.6016 16.9681 16.6916 16.3285 16.2047 14.2224 14.2158 12.4656 12.186 11.7991 10.8743 10.8684 10.2874 10.1725 9.69704 9.57879 9.48368 9.19121 9.1684 9.0364 8.41029 8.87386 8.74992 8.16992 9.3769 8.05763 7.88585 7.85623 6.58074 6.17564 6.17562 6.149 5.98837 5.85723 5.22005 4.24539 3.9645 3.90792 3.14545 2.36476
threshold=0.41126468777656561 0.31075176596641546 0.523319572210312 0.19412679970264438 0.34354223310947424 0.4537313729524613 0.5669105350971223 0.46061013638973242 0.28889036178588873 0.27368260920047766 0.30583336949348455 0.44662563502788549 0.4716422706842423 0.39228826761245733 0.60607862472534191 0.51910164952278148 0.44818150997161871 0.15190297365188601 0.4185709953308106 0.11117988079786302 0.5090722143650056 0.45308262109756475 0.3937023133039475 0.33558714389801031 0.5692049264907838 0.19314949959516528 0.23210723698139193 0.44727088510990148 0.5547245740890504 0.38694250583648687 0.51227349042892467 0.59104624390602123 0.37447007000446325 0.33899940550327307 0.22058749198913577 0.29331144690513616 0.51128864288330089 0.53545749187469494 0.19383131712675097 0.29064603149890905 0.47334079444408422 0.32203172147274023 0.26263591647148138 0.49379035830497747 0.35240311920642858 0.63328939676284801 0.25027796626091009 0.25738410651683813 0.38222274184226995 0.36664959788322454 0.58726912736892711 0.43240812420845037 0.4667594581842423 0.52980720996856701 0.61661002039909374 0.18523314595222476
decision_type=2 2 2 2 2 2 2 2 2 2 2 2 2 2 2 2 2 2 2 2 2 2 2 2 2 2 2 2 2 2 2 2 2 2 2 2 2 2 2 2 2 2 2 2 2 2 2 2 2 2 2 2 2 2 2 2
left_child=1 3 5 7 18 10 12 26 17 19 11 32 41 22 30 27 35 -6 20 55 42 28 -11 -17 -18 -21 46 29 -14 -7 31 -8 -2 -23 -19 -10 38 -38 -12 47 -41 -4 -3 -43 -15 53 -1 -20 -25 -29 -32 -28 -13 -16 -47 -5
right_child=2 4 6 9 8 15 14 -9 16 13 36 52 21 44 45 23 24 34 39 25 -22 33 -24 48 -26 -27 51 49 -30 -31 50 -33 -34 -35 -36 -37 37 -39 -40 40 -42 43 -44 -45 -46 54 -48 -49 -50 -51 -52 -53 -54 -55 -56 -57
leaf_value=-0.15974583249312943 -0.078185169213235595 -0.12141795373452441 -0.12338964866952706 -0.17039854008801655 0.060855890429102534 -0.071201506285610061 0.052057777973868916 0.04210204978413068 -0.076532073839230136 -0.11052083395325246 -0.10184668379463097 0.075254012178046767 -0.12410175532037866 0.034009738682091277 0.12978848535650644 -0.10083618210168598 -0.0092687240805491185 -0.16696729944185501 -0.028518349472782596 -0.13811287512084108 0.021064074623926711 -0.029336028479051337 -0.060738059719769547 -0.018749674813544299 0.076099168320245589 -0.10331807586885028 -0.13481376555780353 0.062033793091119498 0.039180540838526304 -0.0035787533103186116 0.11814207988068676 -0.0757286930604915 -0.15073410293701694 0.063379388373816237 -0.081546979111989909 -0.029448881981603437 -0.01391039167695746 0.069447839279824342 -0.027003536700322808 -0.0084951456755880724 -0.1078601955604534 0.033320239023858056 -0.091675804597922128 -0.032941722546989204 -0.087785895608075301 0.085405414547315164 -0.1357361568165992 -0.1520883059134607 0.054905003434448457 0.008587970281851081 0.065628320538896168 -0.050685500351605732 -0.024295494275450663 0.076062554895176826 0.11897072309034967 -0.14143660393816401
leaf_count=3628 247 624 20 322 21 109 46 21 206 949 60 24 27 46 37 20 395 61 20 666 31 35 252 37 50 847 847 69 22 223 54 30 94 603 246 417 147 46 820 134 44 108 699 106 22 81 476 44 386 297 286 21 23 215 471 174
internal_value=0 -1.15334 0.292325 -1.35919 -0.654476 -0.1147 0.707788 -1.51328 -0.370359 -1.1396 -0.372151 -0.781489 0.39156 -0.932408 0.920874 0.178585 -0.240226 -0.842457 -0.930716 -1.27955 -1.01695 0.530451 -0.993652 0.439376 0.0181794 -1.1815 -1.52449 -0.00298887 -0.399526 -0.240143 0.63756 0.0781911 -0.968796 0.590399 -0.968218 -0.44215 -0.238669 0.0844498 -0.315559 -0.49336 -0.304122 -0.0665296 -1.05265 0.0227074 -0.00598612 1.05467 -1.56858 -1.08565 0.492611 0.194284 0.747101 -1.32494 0.308362 0.847009 1.14341 -1.59937
internal_count=16006 11263 4743 8271 2992 2602 2141 4993 1396 3278 1461 388 921 1269 1220 1141 1068 328 1596 2009 1354 687 1201 443 445 1513 4972 698 49 332 416 76 341 638 307 623 1073 193 880 242 178 234 1323 214 68 804 4104 64 423 366 340 868 47 252 552 496
shrinkage=0.1


Tree=3
num_leaves=61
num_cat=0
split_feature=4 5 6 3 0 8 7 1 7 1 8 5 9 6 7 5 7 9 6 9 4 6 8 5 1 7 5 3 1 1 9 8 9 0 3 7 4 9 8 3 3 5 9 3 4 4 3 1 0 6 5 5 9 8 5 3 6 3 0 1
split_gain=1862.9 291.997 205.328 81.7963 56.679 46.6554 43.2488 33.785 26.181 19.367 17.6388 17.3757 17.144 21.5123 16.3717 14.6207 14.5964 15.1394 12.6332 12.4472 11.8022 13.4048 11.7037 11.1166 10.6167 10.2026 10.0368 9.90148 9.79549 9.52794 9.52626 9.46055 8.57828 8.21329 8.49476 8.21292 9.60469 8.15125 7.98002 7.86126 7.85231 7.03233 7.28386 7.23714 6.92589 6.10402 6.42918 5.65857 5.13419 4.99673 6.94619 4.77767 4.65784 3.63252 8.71198 3.28529 2.58061 5.43036 2.93742 2.43109
threshold=0.4238386750221253 0.3239963054656983 0.523319572210312 0.1862098574638367 0.32197913527488714 0.45091080665588384 0.62169545888900768 0.30537788569927221 0.41196498274803167 0.64015972614288341 0.41566780209541326 0.45360860228538519 0.30583336949348455 0.44662563502788549 0.14554822444915774 0.51910164952278148 0.37081158161163336 0.47524558007717138 0.50123941898345958 0.43697813153266912 0.40608239173889166 0.39422912895679479 0.29234996438026434 0.13780675828456881 0.46727433800697332 0.44247603416442877 0.60607862472534191 0.38285455107688909 0.18281081318855288 0.30055460333824163 0.68374580144882213 0.096665881574153914 0.25504188239574438 0.39042998850345617 0.45167136192321783 0.44585935771465307 0.43347130715847021 0.51156693696975719 0.34227243065834051 0.0441077258437872 0.40093022584915167 0.51128864288330089 0.32309590280056005 0.53545749187469494 0.43633525073528295 0.6745227873325349 0.54770421981811535 0.3845192044973374 0.62275704741477977 0.61661002039909374 0.68365305662155162 0.4636888206005097 -0.13900439441204068 0.58035168051719677 0.53371334075927745 0.5669105350971223 0.31103275716304785 0.058831093832850463 0.36700034141540533 0.61506950855255138
decision_type=2 2 2 2 2 2 2 2 2 2 2 2 2 2 2 2 2 2 2 2 2 2 2 2 2 2 2 2 2 2 2 2 2 2 2 2 2 2 2 2 2 2 2 2 2 2 2 2 2 2 2 2 2 2 2 2 2 2 2 2
left_child=1 3 5 14 18 12 9 16 11 10 19 31 13 29 56 35 17 -5 28 -4 23 -22 51 -9 -13 -24 45 -18 38 -2 -12 -6 52 34 -17 44 -37 -30 -3 -34 -20 42 -14 -43 -7 46 -8 -35 -47 50 -28 -10 -16 55 -55 -11 58 -58 -1 -51
right_child=2 4 6 7 8 15 26 20 22 53 30 24 41 -15 32 33 27 -19 40 -21 21 -23 25 -25 -26 -27 49 -29 37 -31 -32 -33 39 47 -36 36 -38 -39 -40 -41 -42 43 -44 -45 -46 48 -48 -49 -50 59 -52 -53 -54 54 -56 -57 57 -59 -60 -61
leaf_value=-0.15233303255726319 -0.1346612301979877 -0.13635595877166978 -0.13040030955622559 -0.12241972309615412 0.040511296230507934 -0.1137419185561519 0.085123716500001154 -0.12693514499369282 -0.043190904899850217 0.084203098135079188 0.037289925829459634 -0.033974240701541231 0.038501858302815724 0.046352743049963487 -0.054872747285597739 0.03328714861240744 -0.057045685538001968 8.9099382182315236e-05 -0.081866306757860455 0.0033952266688166777 0.03296624603763415 -0.1486069937833934 0.042415491309754777 -0.07194193072556819 0.055871440524510235 -0.011763568065045129 0.092887113158243675 -0.13666086020595844 -0.083554474730521688 -0.06143798935201903 0.10480311657448671 -0.075242886765738204 -0.16242818519371338 -0.025569164549078083 -0.12951698784325943 0.11454103398842019 0.009956305034226955 0.0067426484971642225 -0.048564607520623339 -0.093101484146752178 0.070759013413634234 -0.011131263910412938 -0.032791410499124325 0.066970401186423709 -0.013284368358964306 0.042040165822222378 0.023518509411027538 0.053467875727263747 0.13997021119926198 0.12966705123062638 0.0049928524409621122 -0.13521293989811914 -0.13621631316545033 -0.035096666095495513 0.088883182609293676 0.15507252910824659 -0.061165884220382286 -0.1526809984876123 -0.091027888275903052 0.10233193571817407
leaf_count=2910 120 241 35 2268 22 27 71 171 65 33 840 192 45 37 26 22 230 33 20 78 55 20 125 870 47 507 94 80 916 148 54 633 82 30 20 23 349 32 43 394 22 132 705 43 264 22 119 358 35 90 34 30 1398 20 118 28 37 78 30 435
internal_value=0 -1.03998 0.304449 -1.23409 -0.54222 -0.0699622 0.655085 -1.01982 -0.32585 0.444877 0.346409 -0.542878 -0.318239 -0.71052 -1.40966 0.178484 -1.14607 -1.20266 -0.851176 -0.321726 -0.746536 -0.0689132 -0.0839302 -0.802823 -0.139828 -0.00294376 0.909827 -0.76097 -0.889951 -0.923422 0.419286 -0.706891 -1.26478 0.411925 -0.342977 0.0128164 0.176939 -0.799689 -1.21363 -1.03919 0.0817862 -0.202717 -0.280968 0.104794 -0.213486 0.629159 0.481407 0.481256 1.06654 1.00776 0.722447 -0.696789 -1.34535 0.889351 0.741378 1.19524 -1.50422 -1.21011 -1.51635 1.07246
internal_count=16006 11577 4429 8682 2895 2323 2106 3727 1621 1206 1007 894 1230 305 4955 1093 2611 2301 1274 113 1116 75 727 1041 239 632 900 310 1232 268 894 655 1900 430 42 663 372 948 284 476 42 925 750 175 291 247 190 388 57 653 128 95 1424 199 138 61 3055 115 2940 525
shrinkage=0.1


Tree=4
num_leaves=61
num_cat=0
split_feature=4 2 6 5 8 8 3 1 5 6 1 5 2 6 4 5 7 2 7 1 3 5 8 2 3 6 6 4 4 7 3 6 4 2 5 7 6 0 8 1 5 2 0 0 6 5 2 8 3 1 2 3 7 7 8 6 3 8 0 5
split_gain=1559.24 244.231 189.568 68.1823 51.9822 42.0804 41.3466 31.0732 18.636 17.8861 17.7816 17.5172 17.2414 16.8181 14.0237 13.8742 13.7909 13.646 13.8722 13.6104 13.5283 13.5254 13.3085 12.7682 11.4765 15.6254 13.0976 11.2764 10.7235 10.8946 10.364 8.5761 8.5193 8.35515 9.25677 7.8966 7.81975 7.75228 7.68845 8.06197 7.2651 7.02386 6.85567 6.51692 6.25377 7.5722 5.56053 5.3897 5.1722 4.85143 4.78118 4.61757 4.61667 4.13053 3.75216 2.24864 2.20872 2.12999 3.59357 1.88524
threshold=0.41126468777656561 0.28482362627983099 0.523319572210312 0.28366398811340338 0.25097714364528662 0.4537313729524613 0.5669105350971223 0.41453026235103613 0.53371334075927745 0.092523600906133666 0.29122787714004522 0.31262588500976568 0.50756376981735241 0.38398467004299169 0.25239361822605139 0.47334079444408422 0.49081648886203771 0.52000677585601818 0.59643983840942394 0.12672638148069384 0.17706409096717837 0.60607862472534191 0.41566780209541326 0.29837101697921758 0.31468728184700018 0.32507516443729406 0.33712619543075567 0.15215752273797992 0.38436168432235723 0.24482844024896624 0.30169071257114416 0.42337636649608618 0.30189545452594763 0.41995316743850714 0.42843022942543035 0.51227349042892467 0.59104624390602123 0.15301407873630526 0.29234996438026434 0.24437378346920016 0.1552836745977402 0.34329506754875189 0.58513963222503673 0.19412679970264438 0.53161638975143444 0.49597468972206121 0.33834600448608404 0.25378370285034185 0.36272357404232031 0.36372806131839758 0.47415894269943243 0.58726912736892711 0.63328939676284801 0.37561762332916265 0.61186581850051891 0.61661002039909374 0.37757605314254766 0.28118434548377996 0.26204982399940496 0.023144751787185672
decision_type=2 2 2 2 2 2 2 2 2 2 2 2 2 2 2 2 2 2 2 2 2 2 2 2 2 2 2 2 2 2 2 2 2 2 2 2 2 2 2 2 2 2 2 2 2 2 2 2 2 2 2 2 2 2 2 2 2 2 2 2
left_child=1 4 5 19 9 10 17 13 12 49 38 16 -9 32 27 33 37 18 22 57 53 35 -4 -22 25 -12 -26 -13 40 -30 -16 42 -5 41 -35 36 -8 -6 47 -40 -11 -7 -17 -15 -19 -46 -33 -2 -10 56 -20 -37 54 -21 -23 -54 -1 59 -59 -3
right_child=2 3 6 7 11 15 21 8 48 28 24 14 -14 43 30 31 -18 44 50 20 23 52 -24 -25 26 -27 -28 -29 29 -31 -32 46 -34 34 -36 51 -38 -39 39 -41 -42 -43 -44 -45 45 -47 -48 -49 -50 -51 -52 -53 55 -55 -56 -57 -58 58 -60 -61
leaf_value=-0.14359188803538711 -0.082453801858562492 -0.10210059956262257 -0.080630924491297162 -0.087090079694392877 -0.13325613656773325 0.0052880271769999579 0.042713503046341167 -0.0084710439905717749 -0.030591559816552344 -0.13150680599147041 0.0011969695321234078 -0.095270296625062437 -0.09748725519128186 -0.096311123966728057 -0.057072461284584819 0.012635913881075409 0.035590341250627246 0.12182991403647936 0.11393664541458713 -0.13355849666677055 0.00591303079906331 0.092667157308103473 0.0089960952317341344 -0.080133837958489856 -0.051108967963437793 -0.085922998008968854 0.0029320008097718196 -0.0065147553306650098 -0.13498453549621839 0.022623662243242026 -0.12067126959010997 -0.041534667342049254 -0.050413190719111614 0.03410516874077741 -0.02743670770892298 0.10424140298077854 -0.072860495912363585 -0.098717335747825374 -0.011819442699082763 -0.085401869791453922 -0.11147314017154082 -0.061290222961870644 -0.082635395200626571 -0.023816924674010979 0.0035320139088337848 0.055148193148157935 0.046773285054714092 -0.17231976081881284 0.068529810508345362 -0.049045187283371226 0.024636191330033544 0.054452370137098853 0.072023341834617435 -0.052922440967480736 0.053334313532612726 0.10074798255668851 -0.077267862381194444 -0.060230749793735397 -0.16166436929277667 -0.15754431585993783
leaf_count=2681 116 30 69 516 387 80 46 462 20 1485 108 77 91 51 179 146 21 26 34 244 63 107 291 801 196 185 615 168 31 34 203 24 406 181 123 54 30 903 109 97 1529 134 30 507 105 367 423 35 92 21 29 286 81 26 145 471 20 31 26 158
internal_value=0 -0.981428 0.240343 -0.580986 -1.19516 -0.09334 0.585127 -0.384798 -0.0728492 -1.29634 -0.303844 -0.919017 -0.217156 -0.541337 -0.661701 0.145396 -1.05548 0.312381 0.0818821 -0.930957 -0.844723 0.772192 -0.0587082 -0.732182 -0.196181 -0.512808 -0.0910977 -0.317709 -1.19182 -0.430356 -0.897511 0.309695 -0.703229 -0.0698269 0.107223 0.530465 0.0250126 -1.08545 -0.675006 -0.449283 -1.21076 -0.347655 -0.0177163 -0.296156 0.491951 0.44549 0.427417 -1.01544 0.53453 -1.42202 0.765338 0.630459 0.888593 -1.24739 0.707641 0.967227 -1.43044 -1.37342 -1.03758 -1.48243
internal_count=16006 11263 4743 3524 7739 2602 2141 2145 665 5801 1461 1938 553 1480 627 1141 1311 921 423 1379 1134 1220 360 864 1104 293 811 245 3079 65 382 623 922 518 304 416 76 1290 357 206 3014 214 176 558 498 472 447 151 112 2722 63 340 804 270 252 552 2701 245 57 188
shrinkage=0.1


Tree=5
num_leaves=60
num_cat=0
split_feature=5 2 3 1 9 6 9 5 6 3 6 7 4 9 0 5 4 9 9 4 9 1 9 2 5 9 7 7 6 7 0 7 5 3 2 4 3 5 4 1 1 4 4 2 6 5 0 5 0 0 1 4 5 1 9 2 1 5 0
split_gain=1282.96 214.397 201.962 70.0231 58.1178 42.7563 39.3114 32.6549 22.3125 20.4454 20.3238 19.5142 18.029 17.203 14.2028 12.5342 12.5129 12.237 11.7663 11.3656 10.5847 10.5781 10.3983 9.84183 9.47593 7.7655 7.61353 7.58226 7.00621 6.81016 6.5471 7.99194 6.43689 12.9569 9.37172 6.62769 5.96799 5.75691 5.70825 5.61583 11.7794 13.1011 9.54894 4.58954 7.77632 4.51121 4.39131 5.0421 4.24826 4.24405 3.94914 3.89148 5.73657 4.69124 2.9521 4.06725 3.18726 2.05749 0.665317
threshold=0.39118209481239324 0.26655682921409612 0.50992718338966381 0.3471511453390122 0.27798266708850866 0.6016809642314912 0.26704685389995581 0.52956676483154308 0.31514064967632299 0.36008095741271978 0.1023499257862568 0.52190351486206066 0.26433895528316503 0.4716422706842423 0.50174215435981762 0.218200258910656 0.43633525073528295 0.55688598752021801 0.35700495541095739 0.43935717642307287 0.61141771078109752 0.5143612027168275 0.4564910382032395 0.53567662835121166 0.1665214151144028 0.20693803578615191 0.43355625867843633 0.54308277368545543 0.42546248435974127 0.454665556550026 0.49914546310901647 0.34590923786163336 0.1552836745977402 0.21171284466981891 0.25318595767021185 0.38935154676437383 0.32455158233642584 0.70121264457702648 0.4854749739170075 0.37074780464172369 0.33475144207477575 0.3253114670515061 0.39503610134124761 0.23718326538801196 0.0048849107697606095 0.54154711961746227 0.34906923770904547 0.11756023764610292 0.33681294322013861 0.40048305690288549 0.31862588226795202 0.5387530028820039 0.53725516796112072 0.46082583069801336 0.55688598752021801 0.61016118526458751 0.73147413134574901 0.0086830928921699541 0.21046246588230136
decision_type=2 2 2 2 2 2 2 2 2 2 2 2 2 2 2 2 2 2 2 2 2 2 2 2 2 2 2 2 2 2 2 2 2 2 2 2 2 2 2 2 2 2 2 2 2 2 2 2 2 2 2 2 2 2 2 2 2 2 2
left_child=1 6 4 13 39 14 10 12 30 19 43 29 18 15 20 36 24 28 -6 -10 22 51 -4 -22 -12 -17 -14 -11 -15 -9 31 -5 46 34 -34 -35 -3 38 -16 40 42 -42 -2 57 -45 -13 47 -8 58 -50 -18 52 -7 -53 55 -23 -56 -1 -41
right_child=2 3 5 8 7 21 32 11 9 27 16 45 26 17 37 25 50 -19 -20 -21 23 54 -24 -25 -26 -27 -28 -29 -30 -31 -32 -33 33 35 -36 -37 -38 -39 -40 48 41 -43 -44 44 -46 -47 -48 -49 49 -51 -52 53 -54 -55 56 -57 -58 -59 -60
leaf_value=-0.14198556455244421 -0.10090820066101297 -0.11030750330638717 -0.011168544245420475 -0.077461071313837379 -0.017492977990327379 0.05123078021311181 -0.096387698471447042 0.018732198810163605 -0.061646346987443902 0.018064152627668206 -0.12260553364935296 0.11360331343012187 -0.024042323278542426 -0.021694467828046116 0.021619423310252715 -0.097074430060586914 -0.067277532701881554 -0.14631005062335226 -0.10632873032460288 0.0071073000167266075 0.012719885410355725 0.080571182007138017 0.040306264087419268 -0.13746803094304269 -0.098692219036265447 -0.061083103276690892 0.0014217182011741335 -0.044868757627120434 0.077500447015135254 -0.030446761745343512 -0.15313076471748771 -0.024231431197753853 -0.055208387982444276 -0.10264513839810355 0.055757312806825936 -0.055337554582252368 -0.06814994991244247 -0.024523658712208213 0.057311794859470744 -0.12149083787476136 0.1129103560182637 -0.073422174717435798 -0.0120035090415756 -0.017728186762932842 -0.13600363348988381 0.050861111592833068 -0.040276062043313576 -0.14636928051863957 -0.012851513477372043 -0.11782281411624262 0.043480681443492993 0.10629291434459574 -0.072687408811813611 0.01926011612674524 0.074519084006730976 0.14271071484544404 0.099476787044029236 -0.13022906135804355 -0.1658206212334882
leaf_count=1242 228 668 211 244 87 20 305 214 304 514 1467 31 746 67 163 317 24 22 133 103 25 62 260 32 1382 925 732 70 30 144 28 169 322 517 27 135 162 33 561 20 20 29 52 35 64 256 36 123 20 40 20 24 25 46 668 41 156 1560 45
internal_value=0 -0.907136 0.1952 -0.540162 -0.142625 0.537681 -1.12579 -0.0401035 -0.235931 -0.0929762 -1.20744 0.277236 -0.175811 -0.770879 0.327994 -0.816583 -1.08705 -0.107437 -0.686988 -0.420306 0.107867 0.772915 0.187907 -0.631859 -1.10602 -0.696707 -0.109406 0.109405 0.139426 -0.0028365 -0.598695 -0.540974 -0.838205 -0.752319 -0.451478 -0.918012 -1.01358 0.468779 0.497623 -0.787716 -0.657283 0.145573 -0.823482 -1.3369 -0.90274 0.583997 -1.04065 -1.10308 -1.145 -0.791808 -0.110833 0.292456 -0.114891 0.524316 0.826808 1.07312 0.794179 -1.35372 -1.51822
internal_count=16006 10882 5124 3623 2797 2327 7259 2343 1432 991 5794 645 1698 2191 1285 2072 2893 119 220 407 528 1042 471 57 2849 1242 1478 584 97 358 441 413 1465 1001 349 652 830 757 724 454 329 49 280 2901 99 287 464 428 125 60 44 115 45 70 927 103 824 2802 65
shrinkage=0.1


Tree=6
num_leaves=59
num_cat=0
split_feature=8 9 1 2 5 5 2 1 4 3 4 3 4 3 5 7 3 2 3 0 2 0 3 1 0 1 1 9 0 8 9 0 5 3 9 5 3 0 9 1 8 8 5 7 8 2 3 4 5 8 5 4 7 1 1 7 8 0
split_gain=1122.15 206.065 149.725 51.684 41.2406 41.2281 37.6915 30.5921 22.6229 19.3157 16.2457 15.6802 15.118 14.3979 13.9954 13.3696 14.1483 13.6588 11.8974 11.4224 11.1281 10.587 10.0201 9.49682 9.45636 8.46033 8.2497 7.75574 8.76302 7.58564 7.4913 7.97885 7.3439 7.14416 13.3319 7.12629 11.1798 6.93221 13.3788 6.83754 10.9028 7.31359 6.64364 6.30718 5.85733 5.76203 5.82494 5.62659 7.09161 5.09733 4.84119 4.62271 4.22817 3.14352 2.87309 2.52761 1.26256 0.334937
threshold=0.40197890996932989 0.26263591647148138 0.48034228384494787 0.28675049543380743 0.53371334075927745 0.40245246887207037 0.17622981220483783 0.28624561429023748 0.36052282154560095 0.44018504023551946 0.41676576435565954 0.19101989269256595 0.39503610134124761 0.41651128232479101 0.1552836745977402 0.54789742827415477 0.41651128232479101 0.44727088510990148 0.60816669464111339 0.23072371631860736 0.37717625498771673 0.31482589244842535 0.20975510776042941 0.5143612027168275 0.37737238407135015 0.16319362819194796 0.60340264439582836 0.26704685389995581 0.40311719477176672 0.11794783174991609 0.35963103175163275 0.24354965984821322 0.54154711961746227 0.33671368658542639 0.47524558007717138 0.18162236362695697 0.2330477982759476 0.33202768862247473 0.48433543741703039 0.30281755328178411 0.21955765783786776 0.30407632887363439 0.34288918972015386 0.53570485115051281 0.21684154868125918 0.39925619959831243 0.39865596592426306 0.29960577189922338 0.068796545267105116 0.47771182656288153 0.44528625905513769 0.37929837405681616 0.37824529409408575 0.73147413134574901 0.58161336183547985 0.20257970690727237 0.49890315532684332 0.31931520998477941
decision_type=2 2 2 2 2 2 2 2 2 2 2 2 2 2 2 2 2 2 2 2 2 2 2 2 2 2 2 2 2 2 2 2 2 2 2 2 2 2 2 2 2 2 2 2 2 2 2 2 2 2 2 2 2 2 2 2 2 2
left_child=1 6 5 12 9 8 10 27 33 13 25 20 35 26 47 16 21 -18 32 -13 -9 -7 57 -20 -24 51 -4 -5 -29 -27 44 -32 54 49 -35 52 -37 38 -11 41 -41 -16 -39 -34 -14 56 -47 55 -49 -2 -15 -1 -3 -25 -6 -8 -17 -10
right_child=2 3 4 7 18 15 14 11 22 37 -12 19 30 50 39 45 17 -19 23 -21 -22 -23 24 53 -26 29 -28 28 -30 -31 31 -33 43 34 -36 36 -38 42 -40 40 -42 -43 -44 -45 -46 46 -48 48 -50 -51 -52 -53 -54 -55 -56 -57 -58 -59
leaf_value=-0.1281083581037134 -0.080405194093430665 -0.1088452136936172 -0.011379659250613169 0.034670714154537527 0.12703366045723188 -0.034877255622354039 -0.10746216685929209 -0.033938885083126723 -0.094493675397954391 0.058095995620376428 -6.0755313902510617e-05 -0.06420781383372054 -0.094003468720787672 -0.048412553185444726 -0.095754394617267216 0.11886606036769448 -0.05477235770147152 0.0019161804240872176 -0.016383006351909635 -0.0070531266630310605 -0.1518404501003533 0.033734832859231074 0.019384581379803402 0.072179515420408291 -0.032076302825738451 -0.12797924461052054 0.096293871220753571 -0.082581828209969232 -0.029124705601200031 -0.093295272039397956 -0.17306561291220102 -0.045753689574229824 0.020577526299172023 -0.067379869459873565 0.056173340156103528 -0.048576672347203621 -0.092072027472582543 -0.031680821814855965 -0.14032017293710433 -0.018905057431946232 -0.078548904888087523 -0.058038646204398081 0.041753700926093908 0.05267206122674635 0.017009910078484528 0.090857139735464457 0.016022082366115676 -0.1473262805437294 -0.039415911961899398 -0.14621201594876895 -0.14606339453855482 -0.03237861655606869 -0.04278218451343923 0.09722196663217185 0.05098709595157204 -0.13233612988758592 0.063595589976275263 -0.13063366977050092
leaf_count=3144 225 527 215 25 34 96 533 68 20 20 39 142 22 35 944 21 253 288 34 1206 58 323 194 694 271 480 20 529 137 742 24 110 261 217 30 386 585 42 24 166 391 266 567 487 95 31 192 39 87 63 36 20 40 154 20 293 21 20
internal_value=0 -0.839651 0.206683 -0.502117 0.461912 -0.144251 -1.07007 -0.317434 -0.428241 0.174665 -1.19789 -0.176487 -0.762465 -0.201044 -0.882803 0.0620067 -0.0382917 -0.22969 0.610264 -0.123793 -0.842929 0.19863 -0.165953 0.737737 -0.0986086 -1.21239 -0.00177346 -0.662589 -0.704733 -1.06306 -0.345153 -0.653412 0.464017 -0.719511 -0.489097 -0.843677 -0.743534 0.330647 -0.361402 -0.779709 -0.601801 -0.869061 0.373656 0.419236 -0.0107321 0.388938 0.276686 -1.09532 -0.696238 -0.94049 -0.948278 -1.27366 -1.03425 0.76863 1.0158 -1.16289 0.925204 -1.12086
internal_count=16006 11098 4908 3954 2643 2265 7144 2165 1040 959 4425 1474 1789 306 2719 1225 960 541 1684 1348 126 419 505 882 465 4386 235 691 666 1222 251 134 802 535 247 1538 971 653 44 1767 557 1210 609 748 117 265 223 952 126 288 71 3164 567 848 54 826 42 40
shrinkage=0.1


Tree=7
num_leaves=58
num_cat=0
split_feature=8 9 1 2 5 6 6 1 1 4 0 4 5 4 2 8 6 2 4 0 1 6 5 7 7 2 2 2 0 1 5 9 6 6 0 2 6 2 5 7 7 9 7 9 7 8 1 9 1 4 5 6 0 6 5 5 1
split_gain=947.454 188.428 123.017 44.4877 37.1728 36.8931 30.5259 25.6261 20.2003 18.1303 15.1666 13.2856 12.2776 11.3532 11.0037 10.924 10.5637 10.1089 9.94584 9.49781 9.33758 9.18112 9.16027 9.07717 8.59652 8.78633 8.54931 8.54866 9.83668 8.78813 8.41882 8.37353 7.39588 9.59815 7.16533 7.70179 7.10353 7.37783 6.66897 10.9267 6.417 9.35219 7.53143 6.2178 5.96714 5.9054 5.20085 4.97651 4.19924 3.89246 3.07465 2.56732 4.69676 3.97539 1.81914 3.95676 2.45013
threshold=0.40197890996932989 0.26263591647148138 0.4868562519550324 0.28675049543380743 0.40245246887207037 0.13238845020532611 0.6016809642314912 0.28624561429023748 0.29793730378150945 0.36052282154560095 0.49914546310901647 0.39503610134124761 0.31709758937358862 0.32087540626525884 0.40733604133129125 0.4848123192787171 0.38398467004299169 0.18523314595222476 0.23378468304872516 0.46429981291294103 0.31074136495590216 0.16464106738567355 0.26578022539615637 0.70450386404991161 0.48813967406749731 0.61016118526458751 0.28482362627983099 0.42578732967376715 0.48308220505714422 0.41453026235103613 0.40245246887207037 0.24830482155084613 0.48784992098808294 0.52714619040489208 0.14995069801807406 0.46208703517913824 0.20108715444803241 0.52349117398262035 0.18162236362695697 0.21670253574848178 0.43082058429718023 0.44815552234649664 0.14063998311758044 0.19266515970230105 0.48535579442977911 0.39005562663078314 0.5143612027168275 0.34716208279132849 0.21383470296859744 0.36052282154560095 0.2684094905853272 0.018565211445093158 0.36489716172218328 -0.080284595489501939 0.047739448025822646 0.054272195324301727 0.24663947522640231
decision_type=2 2 2 2 2 2 2 2 2 2 2 2 2 2 2 2 2 2 2 2 2 2 2 2 2 2 2 2 2 2 2 2 2 2 2 2 2 2 2 2 2 2 2 2 2 2 2 2 2 2 2 2 2 2 2 2 2
left_child=1 5 4 11 9 17 10 34 13 32 15 38 44 45 -8 49 36 54 -18 -17 -14 22 -10 30 25 -16 -20 29 -29 -11 -12 -15 47 -34 50 -36 -6 -38 48 -40 42 -42 -13 -23 -9 -7 -26 -2 -3 -4 -5 53 -53 -19 56 -56 -1
right_child=2 3 6 7 16 8 14 12 21 27 23 40 20 31 24 19 18 51 26 -21 -22 43 -24 -25 46 -27 -28 28 -30 -31 -32 -33 33 -35 35 -37 37 -39 39 -41 41 -43 -44 -45 -46 -47 -48 -49 -50 -51 -52 52 -54 -55 55 -57 -58
leaf_value=-0.1306484973576878 -0.090983584340605661 -0.083403168901783828 -0.067619281672803386 -0.079134180779748972 0.068819593496576958 -0.10283211199010862 -0.060465269416553474 -0.048246046078783744 -0.049075311386561675 -0.018286922989337026 0.091522205933433673 0.054403100434694845 0.052846572453046407 -0.075204485071491925 -0.05361268305930527 0.040662679188914475 -0.11387272702797371 -0.1377053374160096 0.082291284042754709 -0.020133713902276092 -0.010181716881633555 -0.085491258213229837 0.09816834162931104 0.11669901620797714 0.013616192551661062 0.082522122338984663 0.013485636134040208 0.033908568745797896 -0.051924190654395491 -0.090482507548664354 0.031614006551365093 0.014081995913453419 0.072866866231720145 -0.099922861684194189 -0.062194540412174773 0.0012879448707779552 -0.021455609118282287 -0.12390871486149138 -0.039976595030249064 -0.084510303806206527 0.077242685772975578 -0.078894019913101646 -0.061071380048835625 -0.048983457720599081 0.020301991768584174 0.0037320336052167977 0.071105382912555803 -0.050864576123438969 -0.12189463061399877 -0.012455522501418981 -0.15343458344038299 -0.10841470742963003 -0.019086236469181561 -0.061452723873591679 -0.056311216424455648 -0.11995011770244918 -0.083475975771017549
leaf_count=1533 289 364 57 52 22 2263 23 442 45 226 66 20 77 352 38 254 22 42 52 109 911 366 22 35 47 20 898 144 61 82 761 44 24 20 519 74 266 28 344 627 31 21 179 403 44 20 966 206 203 192 46 479 25 175 49 1270 56
internal_value=0 -0.782295 0.187764 -0.459169 -0.120787 -1.00961 0.428333 -0.288078 -0.860523 -0.393105 0.267247 -0.704609 -0.159496 -0.955479 0.631828 0.056115 0.0672221 -1.17393 0.152118 0.236516 -0.0496492 -0.591103 0.0998166 0.405451 0.653456 0.00980545 0.175313 -0.161158 0.107235 -0.363082 0.367508 -0.638699 -0.656697 0.0476337 -0.607335 -0.53179 -0.222479 -0.302611 -0.782556 -0.685169 -0.312925 0.226889 -0.477513 -0.655682 -0.410653 -1.01687 0.686484 -0.732348 -0.971238 -0.238362 -1.13653 -0.946407 -1.03187 -0.75063 -1.23595 -1.17463 -1.28865
internal_count=16006 11098 4908 3954 2340 7144 2568 2165 3515 1052 1474 1789 1474 2679 1094 612 1288 3629 972 363 988 836 67 862 1071 58 950 513 205 308 827 396 539 44 691 593 316 294 1538 971 251 52 199 769 486 2283 1013 495 567 249 98 721 504 217 2908 1319 1589
shrinkage=0.1


Tree=8
num_leaves=58
num_cat=0
split_feature=9 2 3 5 5 6 2 6 1 7 1 4 3 9 2 4 1 3 4 0 9 9 9 7 0 3 9 2 2 6 1 6 1 3 6 9 0 4 4 7 9 3 7 5 5 7 7 5 5 9 3 7 5 0 0 9 9
split_gain=785.188 149.272 127.002 41.7979 39.1802 36.3205 21.7041 18.7178 17.0927 16.7857 16.3881 14.586 13.5749 10.867 10.7445 12.0826 10.4382 9.68303 9.59851 9.43938 8.7473 10.1574 8.60529 10.8613 8.28626 11.8878 7.51789 7.36895 7.3674 7.32014 7.13668 10.682 7.08497 7.00664 6.63874 6.59673 17.1723 8.00688 6.27319 8.93134 6.11854 6.50623 6.03599 5.9951 5.97016 5.21563 5.05747 4.84814 5.06542 4.89269 4.84731 4.31965 3.81856 2.89647 2.63349 2.06295 1.52842
threshold=0.38493488729000097 0.26424261927604681 0.53545749187469494 0.49891909956932073 0.19870992004871371 0.38173334300518041 0.28889036178588873 0.6016809642314912 0.31074136495590216 0.47880092263221746 0.3471511453390122 0.37326945364475256 0.18889228999614718 0.26947499811649328 0.25071519613265997 0.39228826761245733 0.14048954099416736 0.3414368480443955 0.19328595697879794 0.50174215435981762 0.23684652894735339 0.37433591485023504 0.54503232240676891 0.45158764719963079 0.44410708546638494 0.41871741414070135 0.48107969760894781 0.48691144585609442 0.27147622406482702 0.40727208554744726 0.55849093198776256 0.52714619040489208 0.44052688777446752 0.38869939744472509 0.44151209294795996 0.48107969760894781 0.39042998850345617 0.59744173288345348 0.20961549878120425 0.197470597922802 0.41718354821205145 0.39865596592426306 0.53949952125549328 0.050874788314104087 0.29719191789627081 0.35079760849475866 0.28859910368919378 0.61155542731285106 0.58578801155090343 0.57932662963867199 0.021674282848834995 0.71626573801040661 0.58054852485656749 -0.054855141788721078 0.25766734778881079 0.22743698209524157 0.40024854242801672
decision_type=2 2 2 2 2 2 2 2 2 2 2 2 2 2 2 2 2 2 2 2 2 2 2 2 2 2 2 2 2 2 2 2 2 2 2 2 2 2 2 2 2 2 2 2 2 2 2 2 2 2 2 2 2 2 2 2 2
left_child=1 4 3 6 18 12 22 19 13 20 11 -8 38 34 15 -10 45 -12 50 35 44 -22 23 -2 25 42 52 -27 -18 46 31 -11 -9 -15 -6 36 -4 -37 43 -40 56 -42 -5 -3 -7 -14 -20 48 -34 -49 54 -28 -21 -52 -1 -16 -26
right_child=2 5 7 24 8 9 10 32 14 30 17 -13 16 33 55 -17 28 -19 29 26 21 -23 -24 -25 40 27 51 -29 -30 -31 -32 -33 47 -35 -36 37 -38 -39 39 -41 41 -43 -44 -45 -46 -47 -48 49 -50 -51 53 -53 -54 -55 -56 -57 -58
leaf_value=-0.126339160426817 -0.063773313605908447 -0.047445570875030679 0.05575546360733899 0.013695160317779712 -0.096569530037453499 -0.10774764505566291 -0.071811514840301002 -0.033834838026371404 -0.051601372813063484 0.031083700631843316 -0.031779551501972765 -0.0091083650109500675 -0.10585323342295841 -0.066096737748625067 -0.063666712202150907 0.019985066293845652 0.023075962349203213 0.0050455409886049395 -0.10145943089691206 0.095153815901577177 -0.012502285006157491 -0.098168686169149713 -0.1666143422507852 0.011508149065027536 -0.00067887521734852916 -0.072910903241304309 0.029594613567510936 0.0082870100839491333 -0.046138947641785034 -0.0054042071646632894 0.092879675923742494 -0.069208326417647723 0.058338512401972444 0.014849970664311053 0.0068674544063867709 0.037192852368165219 -0.068283591448933242 -0.048327475789774851 -0.1114048195080598 -0.04065313386950474 0.064545910251002023 0.024376083400135879 0.10817736490500321 -0.1216486795544983 -0.037670700875780713 -0.023826828920345607 -0.06519098211534459 0.10738388783895131 0.0082524124761339315 0.065352693972719311 -0.12767344345825432 0.096794000974836411 0.017006383768644415 -0.10346213065354706 -0.0745803002116813 -0.14150272364902924 -0.066601938141243211
leaf_count=1371 478 65 51 110 1366 91 306 24 419 158 314 228 197 390 20 100 59 940 905 83 597 56 29 75 21 97 511 54 1411 39 32 45 198 45 24 206 101 41 130 212 139 489 20 261 111 37 219 78 81 608 316 25 22 1873 52 52 24
internal_value=0 -0.748364 0.133422 -0.0928813 -0.946442 -0.428994 -0.231416 0.451331 -0.734219 -0.159082 -0.139733 -0.423085 -0.577968 -0.842925 -0.445506 -0.349507 -0.489477 -0.0346918 -1.07321 0.292115 -0.289571 -0.192091 -0.569675 -0.517087 0.199698 -0.0562441 0.413501 -0.408713 -0.432431 -0.90089 0.24135 0.109864 0.611482 -0.568623 -0.943056 0.0808645 -0.218084 0.245134 -0.841537 -0.650393 0.297399 0.337278 0.312165 -1.06587 -0.659932 -0.909409 -0.937111 0.631864 0.447867 0.705408 -1.1343 0.331088 0.803707 -1.06785 -1.24268 -1.19682 -0.342349
internal_count=16006 10653 5353 3324 7191 3462 2370 2029 2416 1090 1788 534 2372 1825 591 519 1704 1254 4775 1040 855 653 582 553 954 281 641 151 1470 1163 235 203 989 435 1390 399 152 247 668 342 673 628 130 326 202 234 1124 965 279 686 3612 536 105 2189 1423 72 45
shrinkage=0.1


Tree=9
num_leaves=59
num_cat=0
split_feature=8 9 1 6 2 4 3 1 3 7 6 1 3 4 3 7 7 7 8 2 0 1 1 4 6 4 2 0 1 3 3 1 9 0 0 0 4 8 6 6 2 7 7 3 1 3 3 0 1 1 2 0 0 3 3 6 6 7
split_gain=683.553 158.734 84.1854 36.8545 33.2545 25.8236 24.263 19.0296 18.0267 16.0414 12.551 12.4055 11.83 10.9293 10.5697 11.819 10.147 8.94172 8.88608 8.81657 8.51587 8.01686 7.79607 7.70728 7.48615 7.07389 6.99798 6.97476 6.92654 6.87734 7.47054 7.43586 6.58139 7.16468 5.86821 6.94586 5.81456 7.71944 6.22605 5.6613 6.81043 5.63195 11.5694 6.67339 5.43809 5.26873 4.91314 4.55073 4.27183 4.59402 4.16536 4.1634 3.37314 2.85966 1.81661 1.80381 1.18136 0.904566
threshold=0.40197890996932989 0.26263591647148138 0.48034228384494787 0.1023499257862568 0.28675049543380743 0.45308262109756475 0.60816669464111339 0.28624561429023748 0.1862098574638367 0.32203172147274023 0.40467998385429388 0.31074136495590216 0.38550317287445074 0.39503610134124761 0.39612494409084326 0.51892873644828807 0.37824529409408575 0.54789742827415477 0.4848123192787171 0.23718326538801196 0.46429981291294103 0.5143612027168275 0.63280659914016735 0.110263429582119 0.46078968048095709 0.42659595608711248 0.47058527171611791 0.54621097445487987 0.14316605776548388 0.44018504023551946 0.41414898633956915 0.57206851243972789 0.26704685389995581 0.25246956944465643 0.2175867706537247 0.26204982399940496 0.56763592362403881 0.46204268932342535 0.40467998385429388 0.018565211445093158 0.28039605915546423 0.21670253574848178 0.21205846965312961 0.40331284701824194 0.47381967306137091 0.46432849764823919 0.41651128232479101 0.58143877983093273 0.54121950268745433 0.73147413134574901 0.0042578675784170636 0.31709837913513189 0.1746695935726166 0.48164145648479467 0.021674282848834995 -0.0093415798619389517 0.60586434602737438 0.28215183317661291
decision_type=2 2 2 2 2 2 2 2 2 2 2 2 2 2 2 2 2 2 2 2 2 2 2 2 2 2 2 2 2 2 2 2 2 2 2 2 2 2 2 2 2 2 2 2 2 2 2 2 2 2 2 2 2 2 2 2 2 2
left_child=1 3 5 19 13 9 18 32 25 10 28 26 24 41 15 -11 -14 36 20 54 46 47 -22 -13 -9 50 -10 -16 -2 30 -20 -31 -6 -34 52 -36 38 -38 -7 40 -21 42 -3 -43 53 -12 -4 -8 56 -50 -5 -41 -15 -19 57 -56 -23 -1
right_child=2 4 6 8 7 17 21 12 11 14 45 23 16 34 27 -17 -18 44 29 39 22 48 -24 -25 -26 -27 -28 -29 -30 31 -32 -33 33 -35 35 -37 37 -39 -40 51 -42 43 -44 -45 -46 -47 -48 -49 49 -51 -52 -53 -54 -55 55 -57 -58 -59
leaf_value=-0.12343085466405657 -0.0053682002039604874 -0.058945290341113288 0.0040627921880229088 -0.12185607865306206 0.042079884009149478 -0.038908076211867877 -0.060764129034652718 -0.020546028544295832 -0.076786542248851314 -0.0068783999262145776 -0.027378942085036013 0.042799373950600766 0.034152597278056689 -0.040026683098443844 -0.025883011492847014 0.073818071337079474 -0.01177858953556349 0.019664638018356849 0.023254743257462941 0.0088872197653488191 0.012547603327536939 0.078214415171236035 0.1109721986986536 -0.045656487386147394 -0.069791865230561009 2.1197101663787124e-05 0.037009002354982709 -0.10031070505504701 -0.089263228523662752 0.050893536550456697 -0.043744075800551376 0.021604469824091768 -0.085008363669903331 -0.041072327427830332 0.06995850427365817 -0.026782259361601942 0.086689237486323359 0.0049273137251190854 0.0044856564184896737 -0.11392298121943956 -0.097659823761585385 -0.086197875915377642 0.080778599163937093 -0.031538819312253823 -0.032956186720980288 0.067157103937710572 -0.049102955551930207 0.042813855191043998 0.050487957767524155 0.08182535464973878 -0.091081584957489775 -0.013612255640834179 -0.1562818762500999 0.064415944273588613 -0.10007883185493974 -0.11671635249879529 0.1251219960568126 -0.07292104984622344
leaf_count=1219 46 654 103 287 25 156 29 682 1462 396 100 41 228 20 420 59 433 59 160 61 201 27 22 520 131 30 21 50 309 455 76 506 247 419 27 183 43 113 341 160 54 758 22 104 27 22 122 22 740 154 1691 21 21 124 624 933 26 20
internal_value=0 -0.682055 0.157206 -0.904701 -0.385061 -0.107048 0.35277 -0.237531 -0.773308 -0.271733 -0.574893 -0.637921 -0.127324 -0.604215 -0.139787 0.0563095 0.0438499 0.119278 0.224876 -1.10914 0.0132824 0.555413 0.240932 -0.388179 -0.283861 -0.932729 -0.747903 -0.332691 -0.781938 0.298046 0.0328371 0.35885 -0.518428 -0.558881 -0.24707 -0.130637 0.0149896 0.296412 -0.0809463 -0.746614 -0.376236 -0.678166 -0.531029 -0.789815 0.413104 -0.0764222 -0.24037 -0.114851 0.588433 0.559779 -0.952497 -1.00294 -0.957069 0.508897 -1.15445 -1.10081 1.02028 -1.22543
internal_count=16006 11098 4908 7144 3954 2265 2643 2165 4052 1402 477 2044 1474 1789 925 455 661 863 1645 3092 448 998 223 561 813 2008 1483 470 355 1197 236 961 691 666 251 210 653 156 497 296 115 1538 676 862 210 122 225 51 947 894 1978 181 41 183 2796 1557 53 1239
shrinkage=0.1


Tree=10
num_leaves=51
num_cat=0
split_feature=1 5 3 9 2 1 7 5 6 1 0 2 2 3 6 9 1 9 6 6 2 0 1 6 8 6 1 1 6 7 0 3 5 6 1 9 2 6 2 7 3 6 6 6 2 2 5 5 6 0
split_gain=595.652 110.555 106.343 30.707 29.5564 23.6813 20.7896 17.5436 17.4818 15.4383 13.6725 13.6311 12.9355 12.0642 11.9833 10.934 10.3933 10.1986 10.9347 10.0193 9.81795 9.66597 9.35508 9.31031 8.60488 9.4556 8.60291 8.41994 7.41167 7.17705 7.0954 6.81499 6.7866 6.61744 6.58168 6.52388 5.8367 5.70163 5.45667 4.73718 4.05342 3.77945 3.58285 5.79927 3.50294 3.08543 3.07884 2.96764 0.949202 0.78667
threshold=0.35925988852977758 0.24253066629171374 0.50992718338966381 0.30366548895835882 0.18523314595222476 0.21887822449207309 0.47005736827850347 0.52956676483154308 0.61178731918334972 0.38930067420005804 0.32197913527488714 0.57997778058052074 0.47774320840835577 0.20522125065326693 0.22507246583700183 0.065120764076709761 0.323226347565651 0.13044843822717669 0.4367263019084931 0.10518689081072809 0.31838902831077581 0.35402649641036993 0.3845192044973374 0.34688033163547521 0.31303265690803533 0.28925280272960668 0.48034228384494787 0.31862588226795202 0.24312675744295123 0.03412562049925328 0.28202071785926824 0.32195702195167547 0.3996891081333161 0.40217080712318426 0.5143612027168275 0.41184481978416448 0.40733604133129125 0.55604073405265819 0.32625813782215124 0.37561762332916265 0.029600884765386585 0.1352396756410599 0.62843680381774913 0.71872583031654369 0.6660861372947694 0.59372049570083629 0.35866203904151922 0.55316030979156505 0.12990265339612964 0.32197913527488714
decision_type=2 2 2 2 2 2 2 2 2 2 2 2 2 2 2 2 2 2 2 2 2 2 2 2 2 2 2 2 2 2 2 2 2 2 2 2 2 2 2 2 2 2 2 2 2 2 2 2 2 2
left_child=1 4 3 10 14 12 21 9 20 22 24 15 19 -11 40 48 28 -12 -19 46 35 31 -5 36 39 -26 37 -23 -16 -21 -25 -6 -17 -28 45 -4 -22 -9 -8 -2 49 -42 44 -44 -36 47 -3 -10 -7 -1
right_child=2 5 8 7 6 11 38 26 34 13 17 -13 -14 -15 16 32 -18 18 -20 29 23 27 -24 30 25 -27 33 -29 -30 -31 -32 -33 -34 -35 42 -37 -38 -39 -40 -41 41 -43 43 -45 -46 -47 -48 -49 -50 -51
leaf_value=-0.11795630701632442 -0.080937879676288974 -0.12008243547461708 0.026760545799576076 0.0088079345854876513 -0.084460830886065 -0.078503353916693636 0.10211618918619081 0.005851577205410732 0.073805657308766537 -0.082271834542434835 0.093209872644910513 0.088681901636315313 0.048415620635869183 -0.014974200492219911 -0.030673977405875821 -0.03828104012601162 0.037283649657965746 -0.05204146934884607 0.022625101224175981 -0.13418820477976731 0.0070792625981452723 -0.019583306222681826 0.084152593505331982 -0.065260735613748719 -0.096547463288149477 0.0012588312485131393 -0.038840135717549226 -0.11666132982293145 -0.093255505752317405 -0.05574641089768434 0.025205968910426414 -0.047579323421505899 -0.015426157924498541 0.044470183776987082 0.10115473785013983 -0.097700676946184423 0.10510761621223517 -0.076652057240380322 -0.024866786684311082 -0.14811409098476488 -0.093566962822612149 -0.11580670949832723 0.044077912226897227 0.075826682579999208 0.029255995502800936 -0.031304440881562978 -0.058452835140402316 -0.0029342261099783683 -0.13794559842602544 -0.070173705056753161
leaf_count=1486 228 230 22 315 1615 20 26 176 25 113 25 25 32 1586 121 1403 34 247 91 65 26 218 57 30 73 94 33 47 498 1175 1219 261 714 327 81 39 58 33 20 62 1485 616 511 235 25 35 49 31 49 20
internal_value=0 -0.682106 0.0968823 -0.116426 -0.886205 -0.421735 -0.683903 -0.0312809 0.365136 -0.112685 -0.464785 -0.29891 -0.632641 -0.186356 -1.01148 -0.318808 -0.729736 -0.199478 -0.290202 -0.667067 0.244053 -0.722892 0.218367 0.271592 -0.718229 -0.366304 0.227771 -0.361407 -0.805268 -0.592156 0.233775 -0.784802 -0.297296 0.378529 0.540521 -0.488001 0.796129 -0.0591062 0.511642 -0.953348 -1.07054 -1.00375 0.585499 0.542801 0.860868 0.105284 -1.07685 0.339504 -1.21337 -1.17247
internal_count=16006 10209 5797 3460 6447 3762 2187 2640 2337 2071 820 2211 1551 1699 4260 2186 653 363 338 1519 1394 2141 372 1333 457 167 569 265 619 1240 1249 1876 2117 360 943 61 84 209 46 290 3607 2101 852 746 106 91 279 56 69 1506
shrinkage=0.1


Tree=11
num_leaves=54
num_cat=0
split_feature=4 1 5 9 5 0 5 2 1 8 8 3 4 1 0 4 0 0 1 1 2 0 9 7 8 8 4 3 1 1 5 9 2 0 4 8 4 7 0 8 8 9 3 7 3 1 2 4 1 8 0 4 8
split_gain=529.571 139.214 54.9907 42.1507 24.3919 18.7353 18.3917 17.9578 14.1498 11.3909 11.7914 10.7554 12.7142 10.3665 10.2107 10.0383 12.3632 11.7389 9.60921 9.2334 8.44219 8.27127 8.01901 8.42554 7.95948 12.1612 7.94183 8.20319 7.91668 7.90657 10.4037 7.57407 7.46895 7.18777 6.94638 6.9385 7.33476 6.45201 6.44938 6.29966 6.07344 10.8345 5.18183 4.66639 3.84802 5.93165 3.77413 3.55016 3.25375 2.59755 1.88025 5.91214 0.676744
threshold=0.28024259209632879 0.4899356365203858 0.24012550711631778 0.29863092303276068 0.53371334075927745 0.12772356718778613 0.37435597181320196 0.18523314595222476 0.1381075978279114 0.34931831061840063 0.38104841113090521 0.44889791309833532 0.37614317238330847 0.60866886377334606 0.44092170894145971 0.473292887210846 0.43502964079380041 0.5187462866306306 -0.038413371890783303 0.64015972614288341 0.47415894269943243 0.50881057977676403 0.4342151284217835 0.21670253574848178 0.33291022479534155 0.38104841113090521 0.49594222009181982 0.47086358070373541 0.16581770777702334 0.3300487101078034 0.3239963054656983 0.51436841487884533 0.45005071163177496 0.33202768862247473 0.19328595697879794 0.5420709252357484 0.46314997971057897 0.30651421844959265 0.52993604540824901 0.37306386232376104 0.31104847788810736 0.067681685090065016 0.021674282848834995 0.49709148705005651 0.25479029119014746 0.34954524040222174 -0.022715861909091469 0.69043341279029857 0.23925435543060306 0.32149152457714086 0.24354965984821322 0.14747353643178943 0.012315492145717146
decision_type=2 2 2 2 2 2 2 2 2 2 2 2 2 2 2 2 2 2 2 2 2 2 2 2 2 2 2 2 2 2 2 2 2 2 2 2 2 2 2 2 2 2 2 2 2 2 2 2 2 2 2 2 2
left_child=2 3 7 5 11 39 15 42 18 20 22 12 37 -14 40 17 -17 -5 -7 35 29 -10 23 -11 32 -26 31 -28 -12 33 -31 -13 -8 -4 -30 36 -6 -3 -37 46 48 -42 50 -21 45 -44 -2 -45 -9 -46 52 -52 -1
right_child=1 4 9 6 19 8 24 14 21 10 28 26 13 -15 -16 16 -18 -19 -20 43 -22 -23 -24 -25 25 -27 27 -29 34 30 -32 -33 -34 -35 -36 38 -38 -39 -40 -41 41 -43 44 47 49 -47 -48 -49 -50 -51 51 -53 -54
leaf_value=-0.11030862937267923 -0.021142541609620688 -0.053248915067763317 -0.062309090478761313 -0.029531498799966211 0.057350997770012395 0.046967226827639541 0.010860512801943962 -0.073946346556798492 -0.028363173973455714 0.07326268311909305 0.045321488373818157 0.02012437520474776 -0.041793380187607254 0.051935727554573388 0.034548720921567994 0.035297012578791614 -0.046569787227804089 -0.12127750327035516 -0.10778449785310945 0.11678175489844295 0.029910793176985515 -0.12208712957712593 0.11687339275664098 -0.038151739178552267 -0.042169628780680771 0.0024557630602101907 0.11054232163940246 0.029238117655764131 -0.015148710989127812 -0.00085457137275576033 -0.070102372382713482 -0.04039281563011049 0.0709844778793675 -0.10271475511505267 -0.071217633699484237 0.011360696740875871 -0.0022974705633422203 0.06670187614851085 0.051183838348545244 -0.019527527964105788 0.091936763080525924 -0.058907608712352448 -0.091914397948130735 0.042456515464657729 -0.12157472483187588 -0.014610784966612153 -0.12665536257990728 0.06687961746727665 -0.099033769008349648 -0.063195133673894913 -0.12437058447648336 0.026788725068457465 -0.12187091439619593
leaf_count=789 20 21 1116 1181 72 21 272 1011 1231 39 34 178 303 37 34 157 98 60 212 29 34 41 21 85 245 1370 33 354 129 175 182 100 78 258 250 156 266 73 466 31 22 239 2016 380 386 51 227 308 377 44 50 20 624
internal_value=0 -0.000861176 -0.765277 -0.197823 0.294519 -0.472446 -0.0909095 -0.909051 -0.389418 -0.503088 -0.264604 0.0916121 -0.133232 -0.296797 -0.715222 -0.258117 0.0586373 -0.336962 -0.920384 0.420096 -0.595539 -0.313367 0.217068 -0.0071106 0.0155372 -0.0357789 0.222322 0.372561 -0.434216 -0.620884 -0.357707 -0.0060943 0.261202 -0.703863 -0.517789 0.312093 0.114285 0.444547 0.415727 -1.03337 -0.745578 -0.446685 -1.00739 0.564676 -0.941103 -0.895489 -1.17828 0.534077 -0.811491 -1.1476 -1.13246 -0.742012 -1.1547
internal_count=16006 8020 7986 5244 2776 1783 3461 5663 1505 2323 558 1099 434 340 1683 1496 255 1241 233 1677 1765 1272 145 124 1965 1615 665 387 413 1731 357 278 350 1374 379 960 338 94 622 278 1649 261 3980 717 2497 2067 247 688 1388 430 1483 70 1413
shrinkage=0.1


Tree=12
num_leaves=57
num_cat=0
split_feature=4 1 5 1 6 2 3 7 2 8 1 9 3 2 9 1 2 8 4 5 6 9 6 6 5 7 4 7 9 4 8 5 3 3 2 6 6 8 1 4 3 9 3 1 4 5 3 3 4 5 1 6 8 6 7 9
split_gain=456.346 114.123 52.5585 37.0509 21.5183 17.9283 15.1645 12.9991 12.387 10.2064 10.1565 10.1927 9.96035 9.56465 9.16567 9.01003 8.51398 10.1299 8.4193 8.34585 9.09044 16.5413 9.23056 9.03693 16.208 8.1389 8.99129 7.70038 7.48727 6.62751 6.09585 5.74349 5.6936 5.66239 5.61319 5.60917 5.57582 5.52989 5.47235 8.84469 5.09696 6.47631 5.08816 4.87218 5.41494 4.76966 3.82732 3.81311 3.69696 3.94507 3.53168 3.3075 3.14987 3.11686 0.830375 0.0848299
threshold=0.28024259209632879 0.4899356365203858 0.24012550711631778 0.20948792248964312 0.54327413439750682 0.18523314595222476 0.078423440456390395 0.43082058429718023 0.45005071163177496 0.28989529609680181 0.17586138844490054 0.18542623519897464 0.63559564948081981 0.51171404123306286 0.24830482155084613 0.25818015635013586 0.35385298728942877 0.12041909992694856 0.28671026229858404 0.53371334075927745 0.47865071892738348 0.57005977630615245 0.44934341311454779 0.46935966610908514 0.60607862472534191 0.44247603416442877 0.41895966231822973 0.44913311302661901 0.40624573826789862 0.47606638073921209 0.33291022479534155 0.1257041469216347 0.095979671925306334 0.095979671925306334 0.2203488498926163 0.22507246583700183 0.2300158962607384 0.14977310597896579 0.21887822449207309 0.110263429582119 0.25027796626091009 0.065120764076709761 0.21171284466981891 0.323226347565651 0.1953459978103638 0.44818150997161871 0.021674282848834995 0.24284453690052035 0.57634219527244579 0.59527134895324718 0.64607697725296032 0.1352396756410599 -0.0040202131494879714 0.30124366283416754 0.28859910368919378 0.282284826040268
decision_type=2 2 2 2 2 2 2 2 2 2 2 2 2 2 2 2 2 2 2 2 2 2 2 2 2 2 2 2 2 2 2 2 2 2 2 2 2 2 2 2 2 2 2 2 2 2 2 2 2 2 2 2 2 2 2 2
left_child=2 3 5 14 19 35 37 8 -8 16 32 34 25 -13 40 -9 38 -18 -16 20 22 -22 -3 24 -21 45 -27 31 -19 -25 -20 36 -11 -33 -12 46 -7 -5 52 -40 53 -42 -34 47 -45 -6 54 -37 50 -50 -14 -48 -4 -2 -1 -39
right_child=1 4 9 6 12 27 7 15 -10 10 11 13 48 -15 18 -17 17 28 30 23 21 -23 -24 29 -26 26 -28 -29 -30 -31 -32 33 42 -35 -36 43 -38 55 39 -41 41 -43 -44 44 -46 -47 51 -49 49 -51 -52 -53 -54 -55 -56 -57
leaf_value=-0.11341961683518216 -0.11268314782604259 -0.0035594385463636521 -0.028371796676500301 -0.016677080904603427 0.13844187188153789 -0.072210312039943006 -0.025769266435036943 0.057475322461718881 0.0068754674775235742 -0.089316922423132536 -0.044015894929534012 -0.025988479580254839 0.064249079997147837 -0.12991087231250276 0.069717597697188313 -0.0010048745778078289 0.085073143537862495 -0.021796044696560241 -0.027456578357689949 0.034142120228351711 -0.059789976843993557 0.053052608063420229 0.049128582269315026 0.099506149282364995 -0.083941392412141991 -0.069673659484032216 0.026080245242639667 0.032915563196962372 -0.15737432755096112 0.033087220597259215 -0.076690498893295572 -0.094917828642872556 0.089102816121726686 -0.048279971188478515 -0.13835317736206268 -0.069630432287489039 -0.11789724940203461 -0.12977199751460225 0.0047823911491367815 -0.06548299364599415 0.04716344709903008 -0.07029053748968718 0.0047345975432077185 -0.09235927727002323 0.044529594678439623 0.052767570984493306 -0.087725222836947725 -0.11807704896255689 0.014321127423664377 0.05583064240217081 0.13486552107943414 -0.11060129127706497 -0.08647448858519087 -0.050806707810123856 -0.064151756577398994 -0.14604878876244903
leaf_count=1369 263 415 58 29 20 555 2110 88 472 26 52 622 61 38 28 1489 29 115 299 97 178 46 125 46 59 34 810 27 21 208 164 195 40 687 77 356 219 38 104 404 25 156 113 27 30 72 1472 135 78 502 25 568 624 53 23 30
internal_value=0 -0.000858593 -0.721319 -0.179776 0.268086 -0.867354 -0.113619 -0.0998996 -0.188515 -0.463701 -0.311788 -0.407651 0.394505 -0.317752 -0.573005 0.0222476 -0.596629 -0.171566 -0.386535 0.0884352 -0.0237288 -0.325662 0.0985893 0.278568 -0.0547204 0.282422 0.227421 -0.670734 -0.418607 0.465301 -0.453885 -0.695978 0.137389 -0.573015 -0.990928 -0.96962 -0.852949 -1.0203 -0.670935 -0.506709 -0.812656 -0.525124 0.270563 -0.743746 -0.143239 0.735143 -1.01196 -0.831376 0.554299 0.502397 0.864982 -0.943406 -0.816162 -1.01016 -1.12499 -1.37683
internal_count=16006 8020 7986 5244 2776 5663 4256 4159 2582 2323 968 789 1602 660 988 1577 1355 165 491 1174 764 224 540 410 156 936 844 1683 136 254 463 1656 179 882 129 3980 774 97 1190 508 497 181 153 548 57 92 3432 491 666 580 86 2040 682 316 1392 68
shrinkage=0.1


Tree=13
num_leaves=54
num_cat=0
split_feature=4 1 5 9 8 2 0 5 1 4 5 8 8 0 1 0 4 1 3 1 1 0 1 7 9 8 8 4 2 8 8 3 5 3 1 8 2 3 8 2 7 8 2 8 2 1 8 2 5 0 4 8 5
split_gain=393.143 93.4945 49.9849 31.8509 17.9031 17.7978 16.6484 13.911 11.5884 10.0203 9.53229 9.37355 9.88163 9.15127 8.8731 8.81691 8.7011 7.85424 7.56273 10.7251 8.70847 7.2864 7.24976 8.10545 8.13558 7.58242 7.24097 8.38775 7.09123 6.79767 9.52769 6.74837 6.48206 6.24836 6.32995 5.98223 5.9403 5.75217 5.70072 7.72109 5.27345 4.80207 3.88154 3.85584 3.70087 3.66376 7.66933 2.84236 2.64739 2.04565 5.62517 0.733783 0.716984
threshold=0.28024259209632879 0.4899356365203858 0.24012550711631778 0.29863092303276068 0.52630931138992321 0.18523314595222476 0.12772356718778613 0.37435597181320196 0.1381075978279114 0.66000437736511242 0.35606642067432409 0.34931831061840063 0.39005562663078314 0.3622338622808457 -0.038413371890783303 0.44092170894145971 0.473292887210846 0.28624561429023748 0.46162465214729315 0.30055460333824163 0.42051970958709722 0.50881057977676403 0.27723930776119238 0.4200741201639176 0.083996243774890914 0.31104847788810736 0.5189020335674287 0.49243193864822393 0.16572920233011249 0.33291022479534155 0.38104841113090521 0.051426338031888015 0.44528625905513769 0.60816669464111339 0.5143612027168275 0.37306386232376104 0.49443924427032476 0.021674282848834995 0.28989529609680181 0.19851696491241458 0.43971736729145056 1.0000000180025095e-35 0.49779179692268377 0.49590745568275457 -0.022715861909091469 0.14048954099416736 0.099078625440597548 0.18743869662284854 -0.035036111250519746 0.24354965984821322 0.14747353643178943 0.012315492145717146 0.29009467363357549
decision_type=2 2 2 2 2 2 2 2 2 2 2 2 2 2 2 2 2 2 2 2 2 2 2 2 2 2 2 2 2 2 2 2 2 2 2 2 2 2 2 2 2 2 2 2 2 2 2 2 2 2 2 2 2
left_child=2 3 5 6 9 37 35 10 14 26 16 22 28 -6 -8 38 -5 -12 19 -14 -20 -10 31 24 -24 -25 36 -28 -13 32 -31 52 -9 42 -35 44 -3 49 47 -40 -30 -33 -15 -11 -2 48 -47 -7 -39 51 -51 -1 -4
right_child=1 4 11 7 13 15 8 29 21 43 17 12 18 33 -16 -17 -18 -19 20 -21 -22 -23 23 25 -26 -27 27 -29 40 30 -32 41 -34 34 -36 -37 -38 45 39 -41 -42 -43 -44 -45 -46 46 -48 -49 -50 50 -52 -53 -54
leaf_value=-0.10443232480779528 -0.013662790036958646 -0.0069087803001511771 -0.094288813798422633 -0.024120923526122995 -0.054209029296680512 0.0026384640259067742 0.050581285602444105 0.04729136706653872 -0.023455169467935182 0.12905029653426991 -0.15337510127330073 -0.096456812938159914 -0.011308226080210978 0.04453167849735238 -0.099987820270322034 0.035956285909137596 0.015402606962633503 -0.045271918553008411 -0.04486968444037575 -0.085520406911518215 0.10448985097776256 -0.11312958407262491 -0.13150731451168202 -0.13401471334455511 -0.01721688653625569 0.001852934655940074 0.01420168222336071 -0.13671002512896951 0.014356532269875519 -0.036975555851975456 0.0026952617002442749 0.011066444389997999 -0.001620811285237115 -0.039447142789977324 0.049207702458780388 -0.014069535631103603 0.021270711702976855 -0.11478417040284733 0.066209738196765996 -0.05134234598633905 0.11155284563936468 -0.060003157506236506 0.018962402299998082 0.035087983150354433 -0.121023977392216 -0.10550858523024008 -0.058037186591336942 -0.075633716833988174 -0.088380357755005079 -0.11941631869464234 0.033588210986885705 -0.11743224218692704 -0.12698098416320241
leaf_count=789 20 550 94 1117 37 28 21 186 1231 20 38 25 143 226 212 34 218 123 32 178 20 41 37 63 476 20 20 29 140 245 1370 53 164 26 849 31 379 372 30 317 20 944 614 26 227 360 621 1274 1144 50 20 624 78
internal_value=0 -0.000824125 -0.679672 -0.163218 0.243902 -0.827648 -0.407625 -0.071064 -0.330119 0.0595408 -0.217805 -0.427307 -0.210248 0.347387 -0.834885 -0.628832 -0.163793 -0.662842 -0.397118 -0.523496 0.236102 -0.262544 -0.514593 -0.335067 -0.236162 -0.931652 0.019208 -0.663874 0.162426 0.0212491 -0.0262579 -0.62904 0.248238 0.364505 0.467216 -0.962366 0.0523502 -0.933744 -0.659216 -0.408803 0.295206 -0.562184 0.26134 0.795958 -1.11575 -0.860606 -0.74187 -0.739141 -0.945387 -1.0767 -0.647071 -1.10227 -1.09747
internal_count=16006 8020 7986 5244 2776 5663 1783 3461 1505 1024 1496 2323 558 1752 233 1683 1335 161 373 321 52 1272 1765 596 513 83 978 49 185 1965 1615 1169 350 1715 875 278 929 3980 1649 347 160 997 840 46 247 2497 981 1302 1516 1483 70 1413 172
shrinkage=0.1


Tree=14
num_leaves=50
num_cat=0
split_feature=4 5 5 1 3 2 3 6 1 0 8 6 6 2 0 7 5 6 2 3 5 4 4 2 5 7 3 7 0 0 2 8 5 6 7 3 6 6 1 1 6 1 2 8 6 1 7 0 3
split_gain=338.296 78.4148 47.2274 30.7694 19.6676 17.6278 12.1019 14.9733 12.0975 9.29353 9.20934 9.78686 8.28837 9.06822 7.55066 7.51252 7.47433 7.14773 10.4585 7.00087 8.18097 6.77934 7.73058 6.20958 9.32381 6.07183 6.00371 5.82437 5.78545 8.44582 8.14214 5.25566 8.16647 4.5193 4.33073 3.93626 5.9184 4.43728 3.88404 3.37797 2.99188 2.90408 2.88769 2.55779 2.47667 1.98515 1.0051 0.901102 0.0123553
threshold=0.28024259209632879 0.53371334075927745 0.24012550711631778 0.20948792248964312 0.5669105350971223 0.18523314595222476 0.16684675216674807 0.39422912895679479 0.64015972614288341 0.1993697211146355 0.39005562663078314 0.38398467004299169 0.077690336853265776 0.027906621806323532 0.44092170894145971 0.39637421071529394 0.091561477631330504 0.30589988827705389 0.26926635205745703 0.30169071257114416 0.5494489073753358 0.31628125905990606 0.43347130715847021 0.51171404123306286 0.58054852485656749 0.16764613986015323 0.021674282848834995 0.43971736729145056 0.39309404790401464 0.40556980669498449 0.47774320840835577 0.31104847788810736 0.22589464485645297 0.23391535133123401 0.49709148705005651 0.25479029119014746 0.22507246583700183 -0.07235111296176909 0.30537788569927221 -0.0558989830315113 0.78551170229911815 -0.027965421788394448 0.75070223212242138 0.4848123192787171 0.2918966412544251 0.23327748477458957 0.11601254716515542 0.30768981575965887 0.13492330163717273
decision_type=2 2 2 2 2 2 2 2 2 2 2 2 2 2 2 2 2 2 2 2 2 2 2 2 2 2 2 2 2 2 2 2 2 2 2 2 2 2 2 2 2 2 2 2 2 2 2 2 2
left_child=2 3 5 9 6 26 7 -5 19 17 15 -12 38 45 31 -6 -8 41 -19 20 -3 25 -23 24 -21 -11 44 -25 30 -30 -15 33 -33 -7 -10 36 -28 -37 39 -4 43 -2 -42 -36 47 48 -41 -1 -14
right_child=1 8 12 4 10 14 16 -9 34 21 11 -13 13 28 -16 -17 -18 18 -20 23 -22 22 -24 27 -26 -27 35 -29 29 -31 -32 32 -34 -35 40 37 -38 -39 -40 46 42 -43 -44 -45 -46 -47 -48 -49 -50
leaf_value=-0.10804066296535941 -0.013769649611905146 0.028791275824660442 -0.0037214212921183351 -0.027097518317583575 0.024635191492685185 -0.058804045896311163 -0.09006394334198714 -0.13827120157836156 0.10525472296716445 -0.076830059242729953 -0.084528493357969331 0.043270176939217524 -0.12248860327339604 -0.030364596586890488 0.031911422409070384 -0.12611315409792009 -0.0081541596914809309 0.06508067177370068 -0.10611224660199362 0.025111174698820401 -0.12064161975446193 -0.064897476991479616 0.0036732909403514023 0.076479121359023766 -0.019596959133933181 0.022357684871069521 -0.083962875250228358 0.025083343131426135 -0.13291060462888746 -0.043149891228294594 0.046384549977260103 -0.017979651443984033 -0.13659602616856231 -0.089467854339530306 0.095977578144143649 0.012587844971626246 -0.045821136543078927 -0.1112346286101841 0.0035624714327595754 -0.084762258781729494 0.13102228624342388 -0.10814777205801517 0.047515594673740953 0.037021483249560054 -0.029534172864373889 -0.050479988473837417 -0.12392205904323371 -0.051535222033927221 -0.12863261404951945
leaf_count=1437 21 21 22 263 20 960 55 73 29 46 22 328 44 1602 34 25 4077 34 38 318 29 350 80 62 250 134 1753 783 57 280 48 226 35 428 20 21 314 409 20 70 20 274 32 616 26 24 117 20 39
internal_value=0 -0.00082372 -0.64003 -0.125169 -0.0739342 -0.789418 -0.112975 -0.514901 0.269394 -0.500922 0.284243 0.368188 -0.39367 -0.356765 -0.588802 -0.50937 -0.0892337 -0.82231 -0.202616 0.180762 -0.499164 -0.35014 -0.493187 0.201448 0.0611893 0.0129192 -0.899414 0.293098 -0.327782 -0.568595 -0.272012 -0.6182 -0.331835 -0.685178 0.454976 -0.823029 -0.772878 -1.05143 -0.857316 -0.979111 0.42449 -1.01065 0.828357 0.391737 -1.05175 -1.05408 -1.09323 -1.07075 -1.25593
internal_count=16006 8020 7986 5840 4863 5663 4468 336 2180 977 395 350 2323 2094 1683 45 4132 367 72 1463 50 610 430 1413 568 180 3980 845 1987 337 1650 1649 261 1388 717 2497 2067 430 229 209 688 295 52 636 1483 107 187 1457 83
shrinkage=0.1


Tree=15
num_leaves=54
num_cat=0
split_feature=9 1 6 7 5 0 6 6 9 2 2 4 4 6 0 5 5 4 3 3 6 1 9 2 5 5 9 3 4 2 4 5 3 1 1 1 2 7 3 4 1 9 9 1 9 0 3 7 7 9 0 9 3
split_gain=324.468 63.139 58.9081 21.6822 19.4072 18.4955 15.1791 11.5865 13.4782 11.5371 10.4495 9.80381 9.07706 9.00245 8.42473 8.23184 8.35107 9.35323 7.87343 8.44098 7.78406 7.2828 7.5152 7.25445 7.09836 14.0957 6.34427 6.04254 7.41799 9.07306 6.39112 5.449 5.23845 5.39186 4.80296 4.46072 4.36092 4.35275 5.67786 3.71466 5.44009 3.47184 3.80855 3.18806 7.28522 2.50355 1.96285 6.71043 1.63927 1.17254 0.839644 0.646842 0.0188732
threshold=0.30583336949348455 0.46082583069801336 0.1023499257862568 0.5260089933872224 0.48894421756267553 0.19412679970264438 0.19529029726982119 0.11117988079786302 0.45876152813434606 0.19185163080692294 0.22273849695920947 0.0097470674663782137 0.23160821199417117 0.21042723208665851 0.074632249772548689 0.58054852485656749 0.56205782294273388 0.58467131853103649 0.30169071257114416 0.44889791309833532 0.05691566318273545 0.0042557637207210073 0.19738876819610598 0.012076565530151131 0.3239963054656983 0.3640264123678208 0.15206936001777652 0.63559564948081981 0.39228826761245733 0.52774658799171459 0.73916304111480724 0.56205782294273388 0.5669105350971223 0.42566782236099249 0.3471511453390122 0.029769044369459156 0.40163488686084753 0.14554822444915774 0.074632663279771819 0.28459669649600988 0.13504956662654879 0.51436841487884533 0.53716859221458446 0.26780372858047491 0.018029169179499153 0.10649127140641214 0.20522125065326693 -0.049661362543702119 0.16012984514236453 0.1570977792143822 0.31709837913513189 0.080789115279912962 0.18889228999614718
decision_type=2 2 2 2 2 2 2 2 2 2 2 2 2 2 2 2 2 2 2 2 2 2 2 2 2 2 2 2 2 2 2 2 2 2 2 2 2 2 2 2 2 2 2 2 2 2 2 2 2 2 2 2 2
left_child=2 3 9 6 13 10 7 20 -9 43 37 50 34 -3 -14 16 17 -5 36 -20 -2 26 -23 35 39 -26 -12 28 29 -6 -30 -25 33 -17 -8 -13 -15 45 -39 40 -11 -29 -43 46 -45 -4 48 -48 -1 -46 52 -41 -7
right_child=1 4 5 15 27 11 12 8 -10 24 21 23 14 18 -16 32 -18 -19 19 -21 -22 22 -24 31 25 -27 -28 41 30 -31 -32 -33 -34 -35 -36 -37 -38 38 -40 51 -42 42 -44 44 49 -47 47 -49 -50 -51 -52 -53 -54
leaf_value=-0.11048969323544361 -0.059261438707435721 -0.12357460703334891 -0.078875756564849075 0.0083233875159204954 0.089111387406245024 -0.11855933080189235 -0.054221611655283733 -0.095081380247081904 0.025510795985607106 -0.08754374192799616 -0.038135717107691508 0.011992710146435629 0.082918475178568374 0.077241034743901094 -0.011264958934367873 0.15472851725278877 -0.085637186341298632 0.095255747620251158 -0.024899709636209091 0.010681847850090437 0.025047970040812176 -0.071865069064059275 -0.021156644732865715 -0.030053464194965098 0.13302357987898458 -0.095601004556192623 0.12604341349801032 0.093599927208267694 0.021623512058979263 -0.029097289259404864 -0.064369099328645249 -0.1364635778218217 0.0020302947014919984 0.040967470117044991 -0.0092842459593800788 -0.12238364810823699 -0.001049452783819825 -0.10387747727615644 -0.051613044894097251 -0.078446358757844517 -0.031183418133821611 -0.037674061634408895 0.042148044940561846 0.084956203136531572 -0.12004780892993583 -0.10994644605719328 0.046405294132663831 -0.095774613332310049 -0.089155197351681148 -0.05930428139576413 -0.066720286163130291 -0.12782466612881327 -0.12614693100420413
leaf_count=1830 115 25 560 311 83 50 391 325 41 256 30 20 37 64 2557 21 28 35 356 519 117 366 294 2775 23 31 25 34 1365 26 31 20 20 20 136 94 35 201 612 20 204 21 665 20 48 304 26 281 362 43 21 70 42
internal_value=0 0.0345769 -0.586664 -0.13314 0.207484 -0.454843 -0.188016 -0.525072 -0.770443 -0.912958 -0.634162 -0.349107 -0.141014 0.00108554 -0.100206 0.224361 0.120411 0.189765 0.0238523 -0.0288796 -0.122372 -0.402193 -0.470305 -0.328077 -0.60775 0.155279 0.443919 0.295194 0.234959 0.64923 0.200406 -0.30943 0.762804 1.05925 -0.405542 -0.979638 0.499476 -0.758659 -0.628673 -0.706469 -0.608741 0.428534 0.39931 -1.00888 -0.56947 -0.900874 -1.03307 -0.826972 -1.06659 -0.89752 -1.1088 -1.162 -1.22383
internal_count=16006 7378 8628 4154 3224 5414 3719 598 366 3214 2392 3022 3121 999 2594 435 374 346 974 875 232 715 660 2909 604 54 55 2225 1505 109 1396 2795 61 41 527 114 99 1677 813 550 460 720 686 2610 111 864 2499 307 2192 91 113 90 92
shrinkage=0.1


Tree=16
num_leaves=45
num_cat=0
split_feature=2 1 8 6 6 3 8 2 1 5 7 2 0 4 0 7 4 8 1 7 2 2 7 7 4 7 0 8 0 0 4 2 2 1 1 0 3 7 7 1 5 8 5 0
split_gain=278.011 57.2251 44.6316 22.3237 20.3864 17.8235 13.0864 12.6276 11.4905 10.6358 10.2879 10.2833 9.26463 8.57092 8.35404 7.71214 7.91933 6.95591 6.53458 14.1968 6.10529 5.62671 10.6846 8.98863 10.4201 5.5402 5.53146 5.08472 4.03392 4.43442 10.7301 4.01927 3.99977 3.6701 6.81135 3.45776 2.95365 6.84402 3.01156 1.00145 0.847122 0.452598 0.0609102 0.00159893
threshold=0.28482362627983099 0.43216201663017279 0.19131422042846682 0.17218246310949328 0.092523600906133666 0.5669105350971223 0.58035168051719677 0.0074969809502363214 -0.033090025186538689 0.12318736314773561 0.45158764719963079 0.29596434533596044 0.61699309945106517 0.5387530028820039 0.17898523807525638 0.46702224016189581 0.22257940471172336 0.51563870906829845 0.3471511453390122 0.24914474040269854 0.27333812415599829 0.41740740835666662 0.25445936620235449 0.14986482262611392 0.2158220708370209 0.62815797328948986 0.438162311911583 0.17467426508665088 0.35402649641036993 0.43234154582023626 0.48252221941947943 0.50113105773925792 0.33834600448608404 0.022588212974369529 -0.027965421788394448 0.49241472780704504 0.18403071165084842 -0.049661362543702119 0.10597981885075571 0.47381967306137091 0.17128741741180423 0.36559872329235082 0.31075176596641546 0.089715637266635909
decision_type=2 2 2 2 2 2 2 2 2 2 2 2 2 2 2 2 2 2 2 2 2 2 2 2 2 2 2 2 2 2 2 2 2 2 2 2 2 2 2 2 2 2 2 2
left_child=2 3 4 21 20 11 8 33 -5 -10 18 39 14 15 -13 17 -17 -9 27 -20 36 23 40 24 -2 -14 -8 -6 -7 30 -30 -28 -25 34 43 -31 38 -38 -1 -3 -23 42 -35 -4
right_child=1 5 7 6 10 28 26 13 9 -11 -12 12 25 -15 -16 16 -18 -19 19 -21 -22 22 -24 32 -26 -27 31 -29 29 35 -32 -33 -34 41 -36 -37 37 -39 -40 -41 -42 -43 -44 -45
leaf_value=-0.1106007936559545 0.026857338068666949 0.063186438770255954 -0.11281410020945969 0.1504694609918191 -0.062457434669962952 -0.049214084940102688 -0.010586531287568562 -0.038198625528704205 -0.06973345311398825 -0.011539590185277806 0.049720454544036646 -0.11874024385058356 0.021660328307912705 0.045759877085870315 0.0025127790976076244 0.10982978442639793 -0.013052313449427403 -0.13248037017360384 -0.089650412405117119 0.046867364620180631 0.027090465500197225 -0.06537479269908672 0.060675197484868465 -0.071478180983639714 -0.10605321326303747 0.081442356438957586 0.11488816867726089 -0.10487926047604608 -0.039704372615062412 0.0030136677816372673 0.11100571997845472 0.030112082211641619 -0.12565996385943393 -0.11754481223895662 0.080063929790089694 0.033135257674986332 0.030402843882805508 -0.089073326545881959 -0.084958277599495799 0.1173927234176952 -0.13539622022700051 -0.081630997010472925 -0.13032016976207955 -0.11664413405973742
leaf_count=1524 96 21 20 20 1997 20 33 2883 186 3150 36 26 167 39 1996 20 132 36 83 67 23 20 37 181 58 56 32 211 20 127 46 28 131 147 22 1258 39 343 567 20 20 20 28 20
internal_value=0 0.0223338 -0.56688 -0.15497 -0.757328 0.166808 -0.105877 -0.379133 -0.129214 -0.137277 -0.597143 0.0696852 0.0535888 -0.345407 0.0144798 -0.363349 0.044034 -0.395883 -0.624147 -0.182808 -0.962713 -0.608317 -0.076368 -0.716245 -0.221807 0.377378 0.513721 -0.667726 0.315893 0.326174 0.734185 0.785487 -0.939376 -0.974806 -0.353791 0.303507 -0.980941 -0.75601 -1.03002 0.926793 -1.02255 -1.15027 -1.20188 -1.14897
internal_count=16006 7749 8257 3992 4890 3757 3449 3367 3356 3336 2394 2286 2245 3110 2022 3071 152 2919 2358 150 2496 543 77 466 154 223 93 2208 1471 1451 66 60 312 257 62 1385 2473 382 2091 41 40 195 175 40
shrinkage=0.1


Tree=17
num_leaves=51
num_cat=0
split_feature=9 6 5 6 5 3 2 7 6 4 3 3 8 8 8 2 9 4 8 3 2 5 5 8 9 0 0 7 5 9 3 8 4 3 5 3 5 0 3 4 8 9 6 6 4 0 8 9 9 6
split_gain=242.173 53.2732 42.9657 20.9121 16.389 13.9879 11.9096 11.7115 11.4667 10.9402 10.2712 9.30334 9.12329 14.0166 9.06681 8.07783 7.94324 12.4934 7.20388 6.51684 8.70866 6.35583 11.2376 5.74468 5.64856 5.23849 4.97706 13.7573 11.3019 9.89979 4.64792 5.73558 8.86092 4.46322 4.4527 3.78513 7.87591 3.71697 3.55328 3.51611 4.25545 3.37375 5.51494 3.36703 4.56683 3.71048 2.16702 2.13395 0.666547 0.580651
threshold=0.30583336949348455 0.1023499257862568 0.53371334075927745 0.19529029726982119 0.15866952389478686 0.48897171020507818 0.19185163080692294 0.11237694323062898 0.11117988079786302 0.23160821199417117 0.051426338031888015 0.41651128232479101 0.34721806645393377 0.38308990001678472 0.23946083337068561 0.36856523156166082 0.45876152813434606 0.27576698362827307 0.29494585096836096 0.068160369992256178 0.2203488498926163 0.3239963054656983 0.3640264123678208 0.40197890996932989 -0.050571700558066361 0.1993697211146355 0.16721428930759433 0.096813678741455092 -0.046220317482948296 0.062252536416053779 0.63559564948081981 0.43527300655841833 0.34757082164287573 0.39357253909111029 0.2450983673334122 0.10103543102741243 0.023144751787185672 -0.12823434174060819 -0.079753793776035295 0.28459669649600988 0.21684154868125918 0.27589885890483862 0.049494231119751937 0.62843680381774913 0.71324446797370922 0.69228374958038341 0.3517023772001267 -0.26426099240779871 0.080789115279912962 0.4367263019084931
decision_type=2 2 2 2 2 2 2 2 2 2 2 2 2 2 2 2 2 2 2 2 2 2 2 2 2 2 2 2 2 2 2 2 2 2 2 2 2 2 2 2 2 2 2 2 2 2 2 2 2 2
left_child=1 6 3 8 26 9 41 12 19 15 34 -11 38 -14 -7 -5 25 -18 49 -2 -21 39 -23 -16 -12 -10 35 29 -29 -28 31 32 -20 -33 -9 37 -37 -3 -6 40 -8 46 -43 45 -45 -32 47 -1 -41 -4
right_child=2 4 18 5 7 14 21 10 16 11 24 -13 13 -15 23 -17 17 -19 30 20 -22 22 -24 -25 -26 -27 27 28 -30 -31 43 33 -34 -35 -36 36 -38 -39 -40 48 -42 42 -44 44 -46 -47 -48 -49 -50 -51
leaf_value=-0.036460426934288241 -0.11892335532658918 0.010376127978329305 -0.033647891862412592 -0.023206484648900128 0.035057008189125383 0.10658528052831816 -0.069866577518522335 -0.041847741772680629 -0.044739927441245234 0.00084324805491381807 0.064575837359360774 -0.022471916321938321 0.14051905569891512 -0.093644406114689452 -0.017097368962862094 -0.084860999925446823 0.11372122493989252 -0.09888230001480719 -0.039451551898431227 0.056050014843096158 -0.039206244967950346 0.11895308117826209 -0.087737888403031511 0.01619952794512191 -0.02452690470417429 -0.10745382175193352 -0.088373168021475906 0.082836694329673805 -0.072893650059641338 0.047947919147690053 0.061185993891229917 0.044694295525826967 0.059480951672087862 0.010819416003678667 -0.12223486990487437 -0.010552566542109556 -0.081696353607623423 -0.10005507156679064 -0.083308774468293781 -0.070621450239880257 -0.012381148123855983 -0.11867857916559575 0.070005488149460712 0.011001667114537353 0.0472290812546707 -0.004641944003941227 -0.026580428507083434 -0.10040727714169911 -0.12298439593672786 -0.079122853588879841
leaf_count=57 36 29 20 399 20 30 346 89 123 2125 37 811 20 28 210 131 20 23 36 100 99 23 31 892 2712 214 58 31 606 147 197 120 168 1099 106 177 391 490 473 20 114 24 20 262 211 32 29 2480 70 20
internal_value=0 -0.518568 0.0315313 -0.0683093 -0.393775 -0.0327263 -0.853145 -0.312279 -0.478411 -0.0976142 -0.263105 -0.0586883 -0.665077 0.219018 0.130753 -0.39535 -0.724578 0.0543966 0.231989 -0.0712832 0.0639291 -0.533221 0.19496 0.104874 -0.233898 -0.86759 -0.610177 -0.467052 -0.648957 0.141709 0.244691 0.189824 0.449577 0.144091 -0.856649 -0.74696 -0.594972 -0.938539 -0.790033 -0.633414 -0.535554 -0.960543 -0.231575 0.365273 0.272494 0.530459 -0.978378 -0.990384 -1.10261 -0.562553
internal_count=16006 8628 7378 5213 5414 4598 3214 3485 615 3466 2944 2936 541 48 1132 530 380 43 2165 235 199 604 54 1102 2749 337 1929 842 637 205 2125 1423 204 1219 195 1087 568 519 493 550 460 2610 44 702 473 229 2566 2537 90 40
shrinkage=0.1


Tree=18
num_leaves=49
num_cat=0
split_feature=2 1 8 6 6 3 2 8 1 3 1 7 2 2 4 0 0 2 3 2 3 2 7 5 2 5 2 7 8 8 7 3 5 5 8 4 5 7 0 5 7 1 5 1 3 8 5 3
split_gain=207.827 39.2502 39.0622 19.649 16.9384 12.3715 11.462 9.99401 9.11936 9.40179 9.07056 11.2523 10.0662 8.35883 8.2024 7.43168 13.1893 7.14927 7.3247 5.90158 5.87669 9.15805 6.92201 5.68542 10.3103 5.28703 6.27952 8.81096 5.22311 4.62509 4.31048 4.0638 4.0184 3.41296 9.67801 5.50616 3.50105 3.37544 4.06751 2.82672 2.77999 2.39455 3.32301 1.45608 1.42684 0.972839 0.0535558 0.00348251
threshold=0.28482362627983099 0.43216201663017279 0.19131422042846682 0.092523600906133666 0.17218246310949328 0.5669105350971223 -0.0049323327839374534 0.58035168051719677 -0.033090025186538689 0.18889228999614718 0.33236651122570043 0.24914474040269854 0.060175161808729179 0.29596434533596044 0.5387530028820039 0.23072371631860736 0.25951611995697027 0.28039605915546423 0.095979671925306334 0.38885116577148443 0.1816801801323891 0.26168322563171392 -0.049661362543702119 0.56651568412780773 0.42578732967376715 0.0086830928921699541 0.41740740835666662 0.25445936620235449 0.17688250541687014 0.13622454553842547 0.25880731642246252 0.43442526459693914 0.3286550641059876 0.61155542731285106 0.70115768909454357 0.48252221941947943 0.61760374903678905 0.10597981885075571 -0.11502067744731902 0.75479084253311168 0.35795667767524725 0.022588212974369529 0.065248556435108199 0.27216066420078283 0.040909590199589736 0.34931831061840063 0.25636303424835211 0.1862098574638367
decision_type=2 2 2 2 2 2 2 2 2 2 2 2 2 2 2 2 2 2 2 2 2 2 2 2 2 2 2 2 2 2 2 2 2 2 2 2 2 2 2 2 2 2 2 2 2 2 2 2
left_child=2 4 3 20 25 13 41 8 -6 -10 28 12 -12 45 17 19 -17 18 -8 -15 37 22 -22 24 -9 -2 30 -28 32 -13 -27 -16 -5 34 35 -7 -35 43 -39 -38 -19 42 -4 -1 -30 -3 47 -43
right_child=1 5 6 10 7 33 14 23 9 -11 11 29 -14 15 31 16 -18 40 -20 -21 21 -23 -24 -25 -26 26 27 -29 44 -31 -32 -33 -34 36 -36 -37 39 38 -40 -41 -42 46 -44 -45 -46 -47 -48 -49
leaf_value=-0.10922807304160356 0.049408566045509826 0.11080076786105175 -0.11249026969410858 -0.059151929591391206 0.13082971531084903 -0.0099556925129513571 -0.060677175104065166 -0.026940859522536033 -0.042354880626246649 -0.0077741674828764352 0.068546677629731503 -0.019754982671076126 -0.11148980614121183 0.0070532878114202046 0.09867878114985329 0.1060464038411181 0.0042110608715523138 -0.066478931476393111 -0.025285922175883581 -0.12029957166156435 0.034826869832914574 0.092320903998844461 -0.087586894326520212 -0.039336827661480708 0.10848270064911979 -0.052166080709361011 -0.095184964424905039 0.057475005617209612 -0.030345005468775773 0.074942472862127282 -0.10253589013481752 -0.011155185843397792 -0.015022023735285618 0.09671099615464672 -0.082191171773397145 0.030266033186665847 0.036502672033676707 0.0070657159490495267 -0.086995676796258414 0.0048896651884826978 -0.15168334029242747 -0.1131502877438475 0.042805813499209644 -0.031031789409864886 -0.11250533181342409 0.057818197671881011 -0.12634454193423528 -0.11651478248149101
leaf_count=1502 31 20 32 1897 20 131 498 28 455 2881 22 39 83 26 20 36 2147 60 2534 36 40 20 340 20 45 274 39 37 20 53 162 20 124 24 33 482 684 51 520 117 27 76 20 23 156 21 36 44
internal_value=0 0.0210663 -0.501378 -0.691886 -0.126995 0.141296 -0.325083 -0.0850121 -0.105519 -0.11299 -0.532067 -0.0806546 -0.687562 0.060689 -0.297184 0.0460299 0.0605948 -0.315554 -0.295706 -0.654401 -0.911826 -0.590504 -0.722515 0.458918 0.663843 -0.535321 -0.591074 -0.0221736 -0.594134 0.393129 -0.717386 0.472334 -0.553313 0.267429 0.175256 0.219873 0.345475 -0.989569 -0.787789 0.323552 -0.95113 -1.00522 -0.431756 -1.07788 -1.0437 0.828785 -1.18065 -1.14516
internal_count=16006 7749 8257 4890 3992 3757 3367 3449 3356 3336 2394 197 105 2286 3159 2245 2183 3119 3032 62 2496 400 380 93 73 543 512 76 2197 92 436 40 2021 1471 646 613 825 2096 571 801 87 208 52 1525 176 41 156 120
shrinkage=0.1


Tree=19
num_leaves=49
num_cat=0
split_feature=9 6 1 3 3 4 3 2 6 4 0 1 2 6 6 0 9 3 7 4 0 0 9 7 3 2 2 6 3 4 0 6 7 7 4 7 1 5 1 9 9 4 5 4 9 6 3 0
split_gain=180.607 42.083 38.4554 16.6762 14.0742 13.2997 12.2258 11.6369 9.11931 10.6201 15.9828 10.2612 8.67635 8.54422 10.003 9.51946 8.1776 7.71613 21.11 9.74984 7.56972 8.60173 7.78962 7.06378 6.66714 6.08292 10.5151 5.58275 5.26503 5.87116 4.86013 4.27511 5.10093 11.0429 5.37753 4.14959 4.97503 3.97834 2.98578 8.21609 2.39015 4.70577 2.18087 2.11871 3.08385 1.5566 1.41596 0.00497188
threshold=0.27368260920047766 0.1023499257862568 0.35925988852977758 0.1693854555487633 0.18403071165084842 0.42659595608711248 0.5669105350971223 0.18523314595222476 0.36898219585418707 0.3559365719556809 0.4081206619739533 0.12672638148069384 0.19621225446462634 0.38398467004299169 0.35729071497917181 0.1746695935726166 0.43697813153266912 0.22578479349613192 0.29503999650478369 0.10503397881984712 0.61699309945106517 0.4704552441835404 0.42504124343395239 0.43082058429718023 0.53919014334678661 0.081819973886013045 0.12299837172031404 0.34178951382637029 0.15445473790168765 0.46656379103660589 0.46429981291294103 0.090058460831642165 0.11237694323062898 0.15769547969102862 0.18596950173377993 0.48535579442977911 0.14555913209915164 0.071786981076002135 0.26780372858047491 0.026262065395712856 -0.26426099240779871 -0.10131802782416342 0.34010355174541479 0.37614317238330847 0.38493488729000097 -0.0093415798619389517 0.30344121158123022 0.1606615409255028
decision_type=2 2 2 2 2 2 2 2 2 2 2 2 2 2 2 2 2 2 2 2 2 2 2 2 2 2 2 2 2 2 2 2 2 2 2 2 2 2 2 2 2 2 2 2 2 2 2 2
left_child=1 7 13 12 5 25 20 38 17 11 -11 -10 -4 14 24 42 30 18 -6 -19 21 -5 -22 -18 27 37 -27 -2 -17 -30 -8 32 34 -34 -9 36 -16 -3 40 -40 41 -1 -15 44 -14 -41 -42 -33
right_child=2 4 3 6 8 -7 16 31 9 10 -12 -13 43 15 35 28 23 19 -20 -21 22 -23 -24 -25 -26 26 -28 -29 29 -31 -32 47 33 -35 -36 -37 -38 -39 39 45 46 -43 -44 -45 -46 -47 -48 -49
leaf_value=-0.10915771740275558 -0.023383111446952806 -0.11242528584492247 0.052897416285913913 0.009810949812204409 0.02220659846427361 0.075643622037797106 0.020573439012208514 -0.10518554089602489 0.090401367923126946 0.067379835201666516 -0.054727123918482223 -0.04393191273632617 -0.13441219797024198 -0.05533859582667118 0.011641634471887702 -0.099302884192340693 0.079409668953847629 -0.09482153989699732 -0.10538870994392982 -0.035181073444276449 -0.079023984069721109 -0.0089957399450704759 0.041803822916682908 0.023929592299190259 -0.13110246475209533 0.0038134148370427274 -0.059503682505204353 0.023592779497288836 0.013180921126754506 -0.024977842589778185 -0.058771953207844729 -0.11566760043884693 0.06071114637323001 -0.050695002836539993 -0.0011480645136546775 0.010788278230946061 -0.091548025359243945 -0.064236497494615186 0.11104422045907109 -0.01565581904830057 -0.099912998293322952 0.092281685025962859 -0.14255580765356934 -0.15154082389998952 -0.033769682578502769 -0.11554540278531145 -0.052799544275024146 -0.1206480531293974
leaf_count=37 1888 295 20 1967 371 33 39 162 32 131 59 271 31 37 24 27 64 232 99 1282 20 1269 220 1399 23 244 1201 111 586 176 63 35 82 248 51 21 183 382 20 20 2300 20 24 29 27 59 63 29
internal_value=0 -0.497799 0.00870077 0.0929681 -0.368011 -0.547291 0.105155 -0.817565 -0.259167 -0.0124679 0.318814 -0.297844 -0.753909 -0.189472 -0.269319 -0.033723 0.23467 -0.341534 -0.0596655 -0.422897 0.0458914 0.0219465 0.335182 0.267966 -0.216903 -0.584732 -0.492538 -0.201813 0.0132563 0.0369393 -0.256503 -0.489707 -0.411555 -0.212339 -0.772117 -0.689486 -0.79279 -0.833845 -0.938809 -0.434105 -0.966491 -0.269287 -0.903939 -1.04896 -0.805224 -0.912813 -0.983411 -1.18185
internal_count=16006 7758 8248 5148 4632 2155 5041 3126 2477 493 190 303 107 3100 2250 850 1565 1984 470 1514 3476 3236 240 1463 2022 2122 1445 1999 789 762 102 607 543 330 213 228 207 677 2519 99 2420 57 61 87 58 79 2363 64
shrinkage=0.1



feature importances:
Column_5=124
Column_3=123
Column_6=120
Column_1=117
Column_2=115
Column_7=105
Column_9=99
Column_0=96
Column_4=95
Column_8=94

pandas_categorical:null
